svm_type c_svc
kernel_type linear
nr_class 6
total_sv 180
rho -0.31362255814664664 0.76416467164917001 0.99984508063956934 -0.07581260395015961 -0.62042216336228473 0.86717503095580906 0.99999484432560082 0.2619337608483181 0.064746458805582621 1.0005395209829524 -0.75254871261122802 -0.81778036143291655 -1.0004194328396392 -0.9999901096007503 -0.32055173356391298
label 1 2 3 4 5 6
probA -5.7445017427395699 -5.3110127345626816 -5.4132884737157436 -5.9279979890983956 -5.2973272248437988 -5.6412885477820973 -5.6623328984903134 -6.1466513215570506 -5.6196749925241409 -4.6017711363712728 -5.4882913329505936 -5.2948629022987834 -5.4037625056017422 -5.2881928972382086 -5.1691389430742758
probB 0.18796848378599593 0.19309544731087416 0.32999380523074512 0.39677070238549611 0.075385214347444482 -0.21246178813516242 0.14784923439041403 0.084449894752380461 -0.1698741614691455 -0.053183663276254241 0.076774639671800649 -0.14888271982774801 -0.051910628565378522 -0.36477851672630118 -0.37761163250951107
nr_sv 30 18 40 28 34 30
SV
0 0 0 0.0014312205669743008 0 1:0.045313977 2:0.07455986 3:0.22311154 4:0 5:0.28967386 6:0 7:0.018247988 8:0.0060981726 9:0.045313977 10:0.19320509 11:0.080371447 12:0.240502 13:0 14:0.32794866 15:0 16:0.32794866 17:0.11579316 18:0.19320509 19:0.0067617786 20:0.11825618 21:0.32794866 22:0 23:0.32794866 24:0 25:0.003041331 26:0.001016362 27:0.0067617786 28:0.037408698 29:0.11646032 30:0.32794866 31:0 32:0.32794866 33:0 34:0.1496077 35:0.049996395 36:0.037408698 37:0.14899561 38:0.01348359 39:0.040348046 40:0 41:0.41137251 42:0 43:0.41137251 44:0.17883615 45:0.14899561 46:0.075690225 47:0.0032605608 48:0.0097568035 49:0 50:0.29012841 51:0 52:0.05161956 53:0.017250394 54:0.075690225 55:0.030405037 56:0.070667908 57:0.21146461 58:0 59:0.41137251 60:0 61:0.28145 62:0.094055891 63:0.030405037 64:0 65:0.010505591 66:0.031436611 67:0 68:0.41137251 69:0 70:0.035101008 71:0.011730169 72:0 73:0.39220625 74:0.13178678 75:0.39220625 76:0 77:0.39220625 78:0 79:0 80:0 81:0.39220625 82:0.2370006 83:0.09884008 84:0.29576606 85:0 86:0.39220625 87:0 88:0 89:0 90:0.2370006 91:0 92:0 93:0 94:0 95:0 96:0 97:0 98:0 99:0 100:0 101:0 102:0 103:0 104:0 105:0 106:0 107:0 108:0 109:0 110:0.09105166 111:0.27246132 112:0 113:0.39917859 114:0 115:0 116:0 117:0 118:0.024339907 119:0.097968169 120:0.29315746 121:0 122:0.39917859 123:0 124:0.1728992 125:0.057780024 126:0.024339907 127:0 128:0.093421921 129:0.27955401 130:0 131:0.39917859 132:0 133:0.02470224 134:0.0082550552 135:0 136:0.051035456 137:0.036805313 138:0.11013535 139:0 140:0.39917859 141:0 142:0.18946478 143:0.063315965 144:0.051035456 145:0.15595849 146:0.07170321 147:0.21456251 148:0 149:0.28351974 150:0 151:0.26298508 152:0.087885223 153:0.15595849 154:0.27694827 155:0.011950535 156:0.035760414 157:0 158:0.14486769 159:0 160:0.18256471 161:0.061010074 162:0.27694827 163:0.28351974 164:0.02040692 165:0.061065055 166:0 167:0.11376123 168:0 169:0.28351974 170:0.10197171 171:0.28351974 172:0.28351974 173:0.0034011533 174:0.010177508 175:0 176:0.006820756 177:0 178:0.28351974 179:0.13139734 180:0.28351974 181:0.19944808 182:0 183:0 184:0 185:0 186:0 187:0.14086176 188:0.047073651 189:0.19944808 190:0.1070823 191:0 192:0 193:0 194:0 195:0 196:0.048543341 197:0.016222375 198:0.1070823 199:0.36218405 200:0 201:0 202:0 203:0 204:0 205:0.36218405 206:0.17413235 207:0.36218405 208:0.36218405 209:0 210:0 211:0 212:0.15789078 213:0 214:0.36218405 215:0.1640007 216:0.36218405 217:0.077531867 218:0.067845702 219:0.20302022 220:0 221:0.31063178 222:0 223:0.2438858 224:0.081502348 225:0.077531867 226:0.1253715 227:0.011307616 228:0.033836696 229:0 230:0.146415 231:0 232:0.11947271 233:0.039925694 234:0.1253715 235:0.30339634 236:0.0060251895 237:0.018029667 238:0 239:0.31063178 240:0 241:0.31063178 242:0.13207993 243:0.30339634 244:0.31063178 245:0.0010041982 246:0.0030049442 247:0 248:0.066761449 249:0 250:0.31063178 251:0.13263349 252:0.31063178 253:0.16411364 254:0 255:0 256:0 257:0 258:0 259:0.068649113 260:0.02294137 261:0.16411364 262:0.26641789 263:0 264:0 265:0 266:0 267:0 268:0.12120389 269:0.040504318 270:0.26641789 271:0.38157073 272:0 273:0 274:0 275:0 276:0 277:0.17288031 278:0.057773564 279:0.38157073 280:0.38157073 281:0 282:0 283:0 284:0 285:0 286:0.38157073 287:0.13262002 288:0.38157073 289:0.25060418 290:0 291:0 292:0 293:0 294:0 295:0.15322518 296:0.0512053 297:0.25060418 298:0.27239403 299:0.0036505689 300:0.010923853 301:0 302:0.23785266 303:0 304:0.27239403 305:0.09872777 306:0.27239403 307:0.27239403 308:0 309:0 310:0 311:0 312:0 313:0.27239403 314:0.10376357 315:0.27239403 316:0.27239403 317:0.065994881 318:0.19748108 319:0 320:0.27239403 321:0 322:0.22685748 323:0.075811811 324:0.27239403 
0 0 0.035189681408920849 0 0 1:0 2:0.05975806 3:0.17881891 4:0 5:0.063975416 6:0 7:0 8:0 9:0 10:0.098841608 11:0.16111994 12:0.38279951 13:0 14:0.38279951 15:0 16:0 17:0 18:0.098841608 19:0 20:0.10728899 21:0.3210496 22:0 23:0.38279951 24:0 25:0 26:0 27:0 28:0.028130578 29:0.24820827 30:0.38279951 31:0 32:0.38279951 33:0 34:0.022950223 35:0.0076695816 36:0.028130578 37:0.17110172 38:0.11096317 39:0.33204415 40:0 41:0.49043733 42:0 43:0 44:0 45:0.17110172 46:0 47:0 48:0 49:0 50:0.10728034 51:0 52:0 53:0 54:0 55:0.048695993 56:0.2044111 57:0.49043733 58:0 59:0.49043733 60:0 61:0.039728437 62:0.013276581 63:0.048695993 64:0 65:0 66:0 67:0 68:0.18057542 69:0 70:0 71:0 72:0 73:0 74:0 75:0 76:0 77:0 78:0 79:0 80:0 81:0 82:0 83:0 84:0 85:0 86:0 87:0 88:0 89:0 90:0 91:0 92:0 93:0 94:0 95:0 96:0 97:0 98:0 99:0 100:0 101:0 102:0 103:0 104:0 105:0 106:0 107:0 108:0 109:0 110:0.096632637 111:0.28916171 112:0 113:0.33521736 114:0 115:0 116:0 117:0 118:0.028037438 119:0.12998053 120:0.33521736 121:0 122:0.33521736 123:0 124:0.23297194 125:0.077855326 126:0.028037438 127:0 128:0.12989479 129:0.33521736 130:0 131:0.33521736 132:0 133:0.055190206 134:0.018443599 135:0 136:0.061873607 137:0.050071925 138:0.14983422 139:0 140:0.33521736 141:0 142:0.29660094 143:0.099119075 144:0.061873607 145:0.116336 146:0.067911118 147:0.20321527 148:0 149:0.29094198 150:0 151:0.29094198 152:0.11378288 153:0.116336 154:0.24011511 155:0.0410574 156:0.1228594 157:0 158:0.031522173 159:0 160:0.081309371 161:0.027172232 162:0.24011511 163:0.29094198 164:0.014192889 165:0.04247047 166:0 167:0.10905246 168:0 169:0.29094198 170:0.17311548 171:0.29094198 172:0.29094198 173:0.10264352 174:0.29094198 175:0 176:0 177:0 178:0.18767549 179:0.062718019 180:0.29094198 181:0.27111948 182:0.026588591 183:0.0795632 184:0 185:0 186:0 187:0.093735568 188:0.03132486 189:0.27111948 190:0.23779726 191:0 192:0 193:0 194:0.010307446 195:0 196:0.11321443 197:0.037834372 198:0.23779726 199:0.31277046 200:0.06647148 201:0.19890802 202:0 203:0 204:0 205:0.23433895 206:0.078312159 207:0.31277046 208:0.31277046 209:0 210:0 211:0 212:0.31277046 213:0 214:0.31277046 215:0.11672813 216:0.31277046 217:0.058427408 218:0.085179433 219:0.25488934 220:0 221:0.31606698 222:0 223:0.31606698 224:0.13311741 225:0.058427408 226:0.23414966 227:0.017803198 228:0.053273953 229:0 230:0.13554895 231:0 232:0.1734098 233:0.057950549 234:0.23414966 235:0.23282248 236:0.006191859 237:0.018528406 238:0 239:0.22815903 240:0 241:0.31606698 242:0.16099985 243:0.23282248 244:0.31606698 245:0.0010319764 246:0.0030880671 247:0 248:0.0465414 249:0 250:0.20566072 251:0.068728209 252:0.31606698 253:0.3162953 254:0.0021018444 255:0.0062895203 256:0 257:0 258:0 259:0.087058693 260:0.02909356 261:0.3162953 262:0.35294375 263:0.024607902 264:0.073636226 265:0 266:0 267:0 268:0.07006079 269:0.023413122 270:0.35294375 271:0.35294375 272:0 273:0 274:0 275:0 276:0 277:0 278:0 279:0.35294375 280:0.35294375 281:0 282:0 283:0 284:0 285:0 286:0.16156463 287:0.053992063 288:0.35294375 289:0.233934 290:0.013645884 291:0.040833693 292:0 293:0 294:0 295:0.091740854 296:0.030658226 297:0.233934 298:0.23728123 299:0.026083022 300:0.078050055 301:0 302:0.30473736 303:0 304:0.10209769 305:0.034119327 306:0.23728123 307:0.30473736 308:0 309:0 310:0 311:0 312:0 313:0.26180139 314:0.087489419 315:0.30473736 316:0.30473736 317:0.11362182 318:0.30473736 319:0 320:0.30473736 321:0 322:0.074509352 323:0.024899719 324:0.30473736 
0 0.067576691866533006 0.085788386098603439 0.0046387508956213528 0.12418691705876246 1:0 2:0.10487209 3:0.31381732 4:0 5:0.33536839 6:0 7:0 8:0 9:0 10:0.0023661822 11:0.1445242 12:0.33536839 13:0 14:0.33536839 15:0 16:0.085908651 17:0.028709237 18:0.0023661822 19:0 20:0.17251891 21:0.33536839 22:0 23:0.33536839 24:0 25:0 26:0 27:0 28:0.017390393 29:0.1309505 30:0.33536839 31:0 32:0.33536839 33:0 34:0.14460941 35:0.048326056 36:0.017390393 37:0.014060813 38:0.051269937 39:0.15341893 40:0 41:0.35587206 42:0 43:0.16939634 44:0.056609418 45:0.014060813 46:0.065416627 47:0.012425946 48:0.037183024 49:0 50:0.35587206 51:0 52:0.1043264 53:0.034864079 54:0.065416627 55:0.17013404 56:0.095655993 57:0.28623813 58:0 59:0.35587206 60:0 61:0.32332867 62:0.10805105 63:0.17013404 64:0.29919514 65:0.035472244 66:0.10614631 67:0 68:0.1930531 69:0 70:0.19398615 71:0.064826921 72:0.29919514 73:0.17111301 74:0.034357879 75:0.10281149 76:0 77:0.23375832 78:0 79:0.1436456 80:0.048003834 81:0.17111301 82:0.015196078 83:0.0057263132 84:0.017135246 85:0 86:0.065917797 87:0 88:0 89:0 90:0.015196078 91:0.33689103 92:0.10884169 93:0.32569587 94:0 95:0 96:0 97:0.33689103 98:0.13894179 99:0.33689103 100:0.33689103 101:0.030976631 102:0.092693888 103:0 104:0 105:0 106:0.33689103 107:0.1259159 108:0.33689103 109:0 110:0.20631647 111:0.40250728 112:0 113:0.40250728 114:0 115:0 116:0 117:0 118:0.064721793 119:0.080964968 120:0.24227771 121:0 122:0.40250728 123:0 124:0.2839534 125:0.094892479 126:0.064721793 127:0 128:0.11602045 129:0.34717745 130:0 131:0.40250728 132:0 133:0 134:0 135:0 136:0.022135302 137:0.0014294258 138:0.0042773867 139:0 140:0.077952802 141:0 142:0.03041696 143:0.01016484 144:0.022135302 145:0.31123847 146:0.042652555 147:0.12763223 148:0 149:0.2675069 150:0 151:0.31123847 152:0.16625066 153:0.31123847 154:0.31123847 155:0.071908183 156:0.21517661 157:0 158:0.028413229 159:0 160:0.31123847 161:0.16944326 162:0.31123847 163:0.12572901 164:0 165:0 166:0 167:0 168:0 169:0.067325115 170:0.02249893 171:0.12572901 172:0.26566842 173:0.025919767 174:0.077561833 175:0 176:0 177:0 178:0.17196254 179:0.057467006 180:0.26566842 181:0.30181715 182:0.094939567 183:0.28409538 184:0 185:0 186:0 187:0.30181715 188:0.12119503 189:0.30181715 190:0.30181715 191:0.027020048 192:0.080854289 193:0 194:0 195:0 196:0.30181715 197:0.11784793 198:0.30181715 199:0.19387445 200:0.037975825 201:0.11363816 202:0 203:0 204:0 205:0.14506413 206:0.048478011 207:0.19387445 208:0.30181715 209:0.010808018 210:0.032341715 211:0 212:0 213:0 214:0.16034274 215:0.053583864 216:0.30181715 217:0.13180606 218:0.027368484 219:0.081896946 220:0 221:0.32950458 222:0 223:0.18065219 224:0.060370795 225:0.13180606 226:0.16767699 227:0 228:0 229:0 230:0.0074997419 231:0 232:0.066332638 233:0.022167204 234:0.16767699 235:0.32950458 236:0 237:0 238:0 239:0.25128323 240:0 241:0.32950458 242:0.12773927 243:0.32950458 244:0.32950458 245:0 246:0 247:0 248:0 249:0 250:0.32950458 251:0.13256632 252:0.32950458 253:0.08729589 254:0 255:0 256:0 257:0 258:0 259:0.047444019 260:0.015854957 261:0.08729589 262:0.042850483 263:0 264:0 265:0 266:0 267:0 268:0 269:0 270:0.042850483 271:0.35203332 272:0 273:0 274:0 275:0 276:0 277:0.35203332 278:0.22102311 279:0.35203332 280:0.35203332 281:0.17291453 282:0.35203332 283:0 284:0 285:0 286:0.35203332 287:0.16977659 288:0.35203332 289:0.049385939 290:0 291:0 292:0 293:0 294:0 295:0 296:0 297:0.049385939 298:0.035735201 299:0 300:0 301:0 302:0.014540649 303:0 304:0 305:0 306:0.035735201 307:0.3638449 308:0.16549423 309:0.3638449 310:0 311:0 312:0 313:0.3638449 314:0.13249552 315:0.3638449 316:0.3638449 317:0.040696703 318:0.12177957 319:0 320:0.087243862 321:0 322:0.33583578 323:0.11223043 324:0.3638449 
0 0.01009509036238234 0 0 0 1:0.020372879 2:0.13083033 3:0.34639961 4:0 5:0.32135072 6:0 7:0 8:0 9:0.020372879 10:0.11780662 11:0.14669117 12:0.34639961 13:0 14:0.34639961 15:0 16:0.14567403 17:0.048681825 18:0.11780662 19:0 20:0.14857528 21:0.34639961 22:0 23:0.34639961 24:0 25:0 26:0 27:0 28:0.02714375 29:0.072168708 30:0.21595612 31:0 32:0.34639961 33:0 34:0.079976246 35:0.026726725 36:0.02714375 37:0.11156919 38:0.069267415 39:0.20727398 40:0 41:0.40160361 42:0 43:0.25975814 44:0.086806841 45:0.11156919 46:0.0078400355 47:0.0075592971 48:0.022620212 49:0 50:0.14931589 51:0 52:0.024478085 53:0.0081801675 54:0.0078400355 55:0.13728918 56:0.056807976 57:0.16999075 58:0 59:0.40160361 60:0 61:0.25880927 62:0.086489737 63:0.13728918 64:0.3085832 65:0.1015979 66:0.30401957 67:0 68:0.13676272 69:0 70:0.20322746 71:0.067915231 72:0.3085832 73:0 74:0 75:0 76:0 77:0 78:0 79:0 80:0 81:0 82:0 83:0 84:0 85:0 86:0 87:0 88:0 89:0 90:0 91:0.40099263 92:0.11519201 93:0.34469843 94:0 95:0 96:0 97:0.39220652 98:0.13106887 99:0.40099263 100:0.40099263 101:0.045800805 102:0.13705349 103:0 104:0 105:0 106:0.16107093 107:0.053827215 108:0.40099263 109:0 110:0.21852657 111:0.40274334 112:0 113:0.40274334 114:0 115:0 116:0 117:0 118:0.11290176 119:0.027254594 120:0.081556141 121:0 122:0.40274334 123:0 124:0.24184829 125:0.080821656 126:0.11290176 127:0 128:0.16287056 129:0.40274334 130:0 131:0.40274334 132:0 133:0.019615911 134:0.0065552928 135:0 136:0.042786837 137:0.0015798341 138:0.0047274665 139:0 140:0.060705289 141:0 142:0.066897638 143:0.022356072 144:0.042786837 145:0.29132932 146:0.043426801 147:0.12994954 148:0 149:0.29132932 150:0 151:0.29132932 152:0.14658116 153:0.29132932 154:0.29132932 155:0.1795073 156:0.29132932 157:0 158:0.041632481 159:0 160:0.29132932 161:0.12199152 162:0.29132932 163:0.16165929 164:0.015031767 165:0.044980779 166:0 167:0.020229837 168:0 169:0.14120814 170:0.047189403 171:0.16165929 172:0.22814742 173:0.057769205 174:0.17286751 175:0 176:0 177:0 178:0.11457855 179:0.038290232 180:0.22814742 181:0.33963242 182:0.10683675 183:0.31969628 184:0 185:0 186:0 187:0.31528294 188:0.10536231 189:0.33963242 190:0.33963242 191:0.050698683 192:0.15170979 193:0 194:0 195:0 196:0.1584847 197:0.052962936 198:0.33963242 199:0.18787539 200:0.036476389 201:0.10915127 202:0 203:0 204:0 205:0.090130448 206:0.030120088 207:0.18787539 208:0.2801314 209:0.020279469 210:0.06068391 211:0 212:0 213:0 214:0.057396755 215:0.019181037 216:0.2801314 217:0.056056593 218:0.034791626 219:0.10410982 220:0 221:0.3464511 222:0 223:0.34084356 224:0.11390393 225:0.056056593 226:0.083610393 227:0 228:0 229:0 230:0 231:0 232:0.037397482 233:0.012497582 234:0.083610393 235:0.3464511 236:0 237:0 238:0 239:0.075956084 240:0 241:0.3464511 242:0.25886473 243:0.3464511 244:0.3464511 245:0 246:0 247:0 248:0 249:0 250:0.19103381 251:0.063840151 252:0.3464511 253:0.096536733 254:0 255:0 256:0 257:0 258:0 259:0 260:0 261:0.096536733 262:0.11417446 263:0.013204186 264:0.039511807 265:0 266:0 267:0 268:0.0073831081 269:0.0024673049 270:0.11417446 271:0.47014281 272:0 273:0 274:0 275:0 276:0 277:0 278:0 279:0.47014281 280:0.47014281 281:0.079225078 282:0.23707074 283:0 284:0 285:0 286:0.044298634 287:0.014803827 288:0.47014281 289:0.089483514 290:0.025569642 291:0.076513827 292:0 293:0 294:0 295:0.046846971 296:0.015655436 297:0.089483514 298:0.13337158 299:0.041573275 300:0.12440261 301:0 302:0 303:0 304:0.080324486 305:0.026843032 306:0.13337158 307:0.32239118 308:0.1534178 309:0.32239118 310:0 311:0 312:0 313:0.28108168 314:0.093932562 315:0.32239118 316:0.32239118 317:0.21680352 318:0.32239118 319:0 320:0 321:0 322:0.32239118 323:0.16105814 324:0.32239118 
0 0 0 0.01371249155919663 0 1:0.037300773 2:0.040061083 3:0.11987804 4:0 5:0.24962252 6:0 7:0 8:0 9:0.037300773 10:0.28743801 11:0.074683607 12:0.22348182 13:0 14:0.37635943 15:0 16:0.069379888 17:0.0231856 18:0.28743801 19:0.0082938382 20:0.0917551 21:0.27456629 22:0 23:0.37635943 24:0 25:0 26:0 27:0.0082938382 28:0.076316789 29:0.15761846 30:0.37635943 31:0 32:0.37635943 33:0 34:0.042786203 35:0.014298433 36:0.076316789 37:0.29863033 38:0.031552821 39:0.094417959 40:0 41:0.40874061 42:0 43:0.15040663 44:0.050263382 45:0.29863033 46:0.079521298 47:0.0016754465 48:0.0050135553 49:0 50:0.31875998 51:0 52:0.025067769 53:0.0083772298 54:0.079521298 55:0.086300947 56:0.13682844 57:0.40874061 58:0 59:0.40874061 60:0 61:0.092754953 62:0.030997157 63:0.086300947 64:0.0082132081 65:0.019615736 66:0.058697533 67:0 68:0.34481379 69:0 70:0.015459158 71:0.0051661925 72:0.0082132081 73:0.42217994 74:0 75:0 76:0 77:0.42217994 78:0 79:0 80:0 81:0.42217994 82:0.37605783 83:0 84:0 85:0 86:0.42217994 87:0 88:0 89:0 90:0.37605783 91:0 92:0 93:0 94:0 95:0 96:0 97:0 98:0 99:0 100:0 101:0 102:0 103:0 104:0 105:0 106:0 107:0 108:0 109:0 110:0.12670097 111:0.37227124 112:0 113:0.37227124 114:0 115:0 116:0 117:0 118:0.04863951 119:0.11587291 120:0.34673557 121:0 122:0.37227124 123:0 124:0.11512483 125:0.03847279 126:0.04863951 127:0 128:0.098052293 129:0.29340985 130:0 131:0.37227124 132:0 133:0.021839019 134:0.0072982167 135:0 136:0.059530586 137:0.039576206 138:0.11842711 139:0 140:0.37227124 141:0 142:0.11719241 143:0.039163742 144:0.059530586 145:0.18311866 146:0.051646877 147:0.15454659 148:0 149:0.28662178 150:0 151:0.2582719 152:0.086310163 153:0.18311866 154:0.26852524 155:0.0082930233 156:0.024815792 157:0 158:0.078824893 159:0 160:0.22384693 161:0.074805908 162:0.26852524 163:0.27358931 164:0 165:0 166:0 167:0.1718532 168:0 169:0.28662178 170:0.099806488 171:0.27358931 172:0.28662178 173:0 174:0 175:0 176:0.0096426848 177:0 178:0.28662178 179:0.15000615 180:0.28662178 181:0.20058841 182:0 183:0 184:0 185:0 186:0 187:0.14166714 188:0.047342792 189:0.20058841 190:0.10769453 191:0 192:0 193:0 194:0 195:0 196:0.048820883 197:0.016315123 198:0.10769453 199:0.3658452 200:0 201:0 202:0 203:0 204:0 205:0.3658452 206:0.17512792 207:0.3658452 208:0.3658452 209:0 210:0 211:0 212:0.03867254 213:0 214:0.3658452 215:0.18026377 216:0.3658452 217:0.11927675 218:0.041304413 219:0.12359855 220:0 221:0.30647475 222:0 223:0.24094917 224:0.08052098 225:0.11927675 226:0.2261727 227:0.0080164596 228:0.023988305 229:0 230:0.21221496 231:0 232:0.17963889 233:0.06003217 234:0.2261727 235:0.25138888 236:0.0060752169 237:0.018179368 238:0 239:0.26841941 240:0 241:0.30647475 242:0.11097679 243:0.25138888 244:0.30647475 245:0.0010125361 246:0.0030298943 247:0 248:0.059686948 249:0 250:0.30647475 251:0.13701184 252:0.30647475 253:0.2079007 254:0 255:0 256:0 257:0 258:0 259:0.11618333 260:0.038826462 261:0.2079007 262:0.24899787 263:0 264:0 265:0 266:0 267:0 268:0.14866576 269:0.049681589 270:0.24899787 271:0.34272012 272:0 273:0 274:0 275:0 276:0 277:0.34272012 278:0.12380133 279:0.34272012 280:0.34272012 281:0 282:0 283:0 284:0 285:0 286:0.34272012 287:0.16274296 288:0.34272012 289:0.27647674 290:0 291:0 292:0 293:0 294:0 295:0.16320908 296:0.054541744 297:0.27647674 298:0.27647674 299:0 300:0 301:0 302:0.1790773 303:0 304:0.27647674 305:0.10239704 306:0.27647674 307:0.27647674 308:0 309:0 310:0 311:0 312:0 313:0.27647674 314:0.15029474 315:0.27647674 316:0.27647674 317:0.061260257 318:0.18331333 319:0 320:0.23876974 321:0 322:0.19831546 323:0.06627354 324:0.27647674 
0 0 0.022526842380499488 0.06084371444525967 0 1:0.010971665 2:0.053231537 3:0.15928905 4:0 5:0.09701743 6:0 7:0 8:0 9:0.010971665 10:0.22541602 11:0.14424776 12:0.3592394 13:0 14:0.25555241 15:0 16:0.12194861 17:0.040753189 18:0.22541602 19:0.0043886653 20:0.13846575 21:0.3592394 22:0 23:0.3592394 24:0 25:0 26:0 27:0.0043886653 28:0.10998514 29:0.23729898 30:0.3592394 31:0 32:0.3592394 33:0 34:0.09146145 35:0.030564889 36:0.10998514 37:0.23217741 38:0.075463206 39:0.22581442 40:0 41:0.35641688 42:0 43:0.28211102 44:0.094276786 45:0.23217741 46:0.059774715 47:0.0095302472 48:0.028518025 49:0 50:0.27340952 51:0 52:0.11118808 53:0.037157167 54:0.059774715 55:0.11306579 56:0.11654259 57:0.34873924 58:0 59:0.38340828 60:0 61:0.21158327 62:0.070707589 63:0.11306579 64:0.02911081 65:0.023825619 66:0.07129506 67:0 68:0.38340828 69:0 70:0.083391041 71:0.027867874 72:0.02911081 73:0.27474084 74:0 75:0 76:0 77:0.27474084 78:0 79:0.27474084 80:0.10553312 81:0.27474084 82:0.27474084 83:0 84:0 85:0 86:0.27474084 87:0 88:0.27474084 89:0.10768474 90:0.27474084 91:0.19804344 92:0 93:0 94:0 95:0.27474084 96:0 97:0.18561371 98:0.062028892 99:0.19804344 100:0.18646908 101:0 102:0 103:0 104:0.27474084 105:0 106:0.17336506 107:0.057935625 108:0.18646908 109:0 110:0.13139422 111:0.3680031 112:0 113:0.3680031 114:0 115:0 116:0 117:0 118:0.011180812 119:0.099163055 120:0.29673365 121:0 122:0.3680031 123:0 124:0.020106241 125:0.0067191697 126:0.011180812 127:0 128:0.17063724 129:0.3680031 130:0 131:0.3680031 132:0 133:0 134:0 135:0 136:0.050134841 137:0.055773333 138:0.16689509 139:0 140:0.3680031 141:0 142:0.050265599 143:0.016797924 144:0.050134841 145:0.08527495 146:0.014596958 147:0.043679554 148:0 149:0.36204275 150:0 151:0.048779462 152:0.016301282 153:0.08527495 154:0.21794134 155:0.0039066193 156:0.011690049 157:0 158:0.31005415 159:0 160:0.024187807 161:0.008083161 162:0.21794134 163:0.32942504 164:0 165:0 166:0 167:0.36204275 168:0 169:0.12194866 170:0.040753204 171:0.32942504 172:0.36204275 173:0 174:0 175:0 176:0.14388704 177:0 178:0.07683558 179:0.025677169 180:0.36204275 181:0.21336333 182:0.0062665581 183:0.01875193 184:0 185:0 186:0 187:0.046314929 188:0.015477677 189:0.21336333 190:0.17247057 191:0.022393214 192:0.067009039 193:0 194:0 195:0 196:0.079933316 197:0.02671238 198:0.17247057 199:0.33851349 200:0.037599329 201:0.11251155 202:0 203:0 204:0 205:0.27788946 206:0.092866018 207:0.33851349 208:0.33851349 209:0.13435923 210:0.33851349 211:0 212:0 213:0 214:0.33851349 215:0.16027419 216:0.33851349 217:0 218:0.073045775 219:0.21858081 220:0 221:0.37433502 222:0 223:0.024639929 224:0.0082342317 225:0 226:0.022875383 227:0.016085144 228:0.048132885 229:0 230:0.15921216 231:0 232:0.018579874 233:0.0062090792 234:0.022875383 235:0.29589859 236:0 237:0 238:0 239:0.37433502 240:0 241:0.37433502 242:0.14443746 243:0.29589859 244:0.37433502 245:0 246:0 247:0 248:0.064184338 249:0 250:0.10557289 251:0.035280611 252:0.37433502 253:0.18457302 254:0 255:0 256:0 257:0.08394818 258:0 259:0.046599653 260:0.015572826 261:0.18457302 262:0.3693549 263:0 264:0 265:0 266:0.018818704 267:0 268:0.03762446 269:0.012573467 270:0.3693549 271:0.3693549 272:0 273:0 274:0 275:0 276:0 277:0.025299996 278:0.0084548146 279:0.3693549 280:0.3693549 281:0 282:0 283:0 284:0 285:0 286:0.29620641 287:0.098986991 288:0.3693549 289:0.31569347 290:0.020607721 291:0.061666157 292:0 293:0 294:0 295:0.15230773 296:0.050898697 297:0.31569347 298:0.31569347 299:0.073640592 300:0.22036074 301:0 302:0 303:0 304:0.26286256 305:0.087844282 306:0.31569347 307:0.31569347 308:0 309:0 310:0 311:0 312:0 313:0.18666646 314:0.062380653 315:0.31569347 316:0.31569347 317:0 318:0 319:0 320:0 321:0 322:0 323:0 324:0.31569347 
0 0 0.17050641083312076 0 0 1:0.010769243 2:0.040066186 3:0.11989331 4:0 5:0.11988368 6:0 7:0 8:0 9:0.010769243 10:0.27782485 11:0.14168644 12:0.34099954 13:0 14:0.30956963 15:0 16:0.043802712 17:0.014638134 18:0.27782485 19:0.0043076966 20:0.11832689 21:0.34099954 22:0 23:0.34099954 24:0 25:0 26:0 27:0.0043076966 28:0.1367092 29:0.24407825 30:0.34099954 31:0 32:0.34099954 33:0 34:0.032852031 35:0.0109786 36:0.1367092 37:0.307937 38:0.11055498 39:0.33082226 40:0 41:0.33496648 42:0 43:0.10917956 44:0.036485981 45:0.307937 46:0.072114542 47:0.040883675 48:0.12233926 49:0 50:0.30583918 51:0 52:0.043671817 53:0.014594392 54:0.072114542 55:0.13276578 56:0.16030306 57:0.33496648 58:0 59:0.33496648 60:0 61:0.081884675 62:0.027364487 63:0.13276578 64:0.016313359 65:0.055306997 66:0.16549906 67:0 68:0.33496648 69:0 70:0.032753862 71:0.010945792 72:0.016313359 73:0 74:0 75:0 76:0 77:0.70461559 78:0 79:0 80:0 81:0 82:0 83:0 84:0 85:0 86:0 87:0 88:0 89:0 90:0 91:0 92:0 93:0 94:0 95:0.70461559 96:0 97:0 98:0 99:0 100:0 101:0 102:0 103:0 104:0 105:0 106:0 107:0 108:0 109:0 110:0.13983849 111:0.35506311 112:0 113:0.35506311 114:0 115:0 116:0 117:0 118:0.022394946 119:0.14206252 120:0.35506311 121:0 122:0.35506311 123:0 124:0.03213463 125:0.010738857 126:0.022394946 127:0 128:0.149799 129:0.35506311 130:0 131:0.35506311 132:0 133:0.022728322 134:0.0075954064 135:0 136:0.046957292 137:0.065137036 138:0.1949148 139:0 140:0.35506311 141:0 142:0.04663422 143:0.015584375 144:0.046957292 145:0.15504146 146:0.073088132 147:0.21870679 148:0 149:0.30596101 150:0 151:0.075544074 152:0.025245564 153:0.15504146 154:0.30596101 155:0.02625056 156:0.078551382 157:0 158:0.29331169 159:0 160:0.08628612 161:0.028835379 162:0.30596101 163:0.29353398 164:0.0058281007 165:0.017439833 166:0 167:0.30596101 168:0 169:0.10072542 170:0.033660751 171:0.29353398 172:0.30596101 173:0.0023312401 174:0.006975933 175:0 176:0.07942833 177:0 178:0.18046139 179:0.060307186 180:0.30596101 181:0.28042939 182:0 183:0 184:0 185:0 186:0 187:0.12052718 188:0.040278174 189:0.28042939 190:0.21709181 191:0 192:0 193:0 194:0 195:0 196:0.084882103 197:0.02836618 198:0.21709181 199:0.34726962 200:0 201:0 202:0 203:0 204:0 205:0.30131796 206:0.10069544 207:0.34726962 208:0.34726962 209:0 210:0 211:0 212:0 213:0 214:0.34726962 215:0.13007559 216:0.34726962 217:0.01498586 218:0.091210172 219:0.27293563 220:0 221:0.33127087 222:0 223:0.28166661 224:0.094128028 225:0.01498586 226:0.074971519 227:0.01883355 228:0.056357168 229:0 230:0.19214055 231:0 232:0.083395839 233:0.027869431 234:0.074971519 235:0.23238248 236:0.021528786 237:0.064422339 238:0 239:0.33127087 240:0 241:0.33127087 242:0.19539444 243:0.23238248 244:0.33127087 245:0.0035881305 246:0.010737055 247:0 248:0.069088146 249:0 250:0.23503469 251:0.078544468 252:0.33127087 253:0.17077993 254:0 255:0 256:0 257:0.01899212 258:0 259:0.020574214 260:0.0068755583 261:0.17077993 262:0.23237595 263:0 264:0 265:0 266:0.0031653531 267:0 268:0.058930084 269:0.019693451 270:0.23237595 271:0.39126673 272:0 273:0 274:0 275:0 276:0 277:0.21345928 278:0.071334362 279:0.39126673 280:0.39126673 281:0 282:0 283:0 284:0 285:0 286:0.38179746 287:0.12759002 288:0.39126673 289:0.24863784 290:0 291:0 292:0 293:0 294:0 295:0.090309523 296:0.030179935 297:0.24863784 298:0.34200022 299:0 300:0 301:0 302:0 303:0 304:0.18676855 305:0.062414926 306:0.34200022 307:0.34200022 308:0 309:0 310:0 311:0 312:0 313:0.15743205 314:0.052611027 315:0.34200022 316:0.34200022 317:0.01757287 318:0.052584521 319:0 320:0 321:0 322:0.28874552 323:0.096493676 324:0.34200022 
0 0 0 0.012892556059442612 0 1:0.039689902 2:0.053342424 3:0.15962088 4:0 5:0.2656109 6:0 7:0 8:0 9:0.039689902 10:0.30584851 11:0.088820212 12:0.26578394 13:0 14:0.33034125 15:0 16:0.12318414 17:0.041166082 18:0.30584851 19:0.0088250609 20:0.12291265 21:0.33034125 22:0 23:0.33034125 24:0 25:0 26:0 27:0.0088250609 28:0.079073623 29:0.1443962 30:0.33034125 31:0 32:0.33034125 33:0 34:0.12704915 35:0.042457704 36:0.079073623 37:0.29059139 38:0.020749087 39:0.062089175 40:0 41:0.33288121 42:0 43:0.27864611 44:0.093118869 45:0.29059139 46:0.12625058 47:0 48:0 49:0 50:0.33288121 51:0 52:0.081688546 53:0.027298948 54:0.12625058 55:0.071929678 56:0.095503211 57:0.28578112 58:0 59:0.33288121 60:0 61:0.33288121 62:0.11679028 63:0.071929678 64:0.010674321 65:0.032713443 66:0.097890727 67:0 68:0.33288121 69:0 70:0.12788393 71:0.042736672 72:0.010674321 73:0.42117855 74:0 75:0 76:0 77:0.42117855 78:0 79:0 80:0 81:0.42117855 82:0.1246077 83:0 84:0 85:0 86:0.27579021 87:0 88:0 89:0 90:0.1246077 91:0.029338531 92:0 93:0 94:0 95:0 96:0 97:0 98:0 99:0.029338531 100:0.42117855 101:0 102:0 103:0 104:0 105:0 106:0 107:0 108:0.42117855 109:0 110:0.17263985 111:0.36310396 112:0 113:0.36310396 114:0 115:0 116:0 117:0 118:0.028140241 119:0.12116053 120:0.36255816 121:0 122:0.36310396 123:0 124:0.08494328 125:0.028386628 126:0.028140241 127:0 128:0.14098816 129:0.36310396 130:0 131:0.36310396 132:0 133:0 134:0 135:0 136:0.031032082 137:0.03985789 138:0.11926999 139:0 140:0.33181182 141:0 142:0.059195906 143:0.019782284 144:0.031032082 145:0.14561127 146:0.073536746 147:0.22004913 148:0 149:0.29901895 150:0 151:0.2898595 152:0.096866205 153:0.14561127 154:0.29901895 155:0.029156707 156:0.087247655 157:0 158:0.24713255 159:0 160:0.19781969 161:0.066108041 162:0.29901895 163:0.2075744 164:0.0064733182 165:0.019370561 166:0 167:0.18092029 168:0 169:0.26074198 170:0.08713562 171:0.2075744 172:0.29901895 173:0.0025893271 174:0.0077482243 175:0 176:0.040612157 177:0 178:0.21346462 179:0.071336307 180:0.29901895 181:0.32528615 182:0.019541007 183:0.058474146 184:0 185:0 186:0 187:0.011430161 188:0.003819769 189:0.32528615 190:0.32528615 191:0.069828756 192:0.20895426 193:0 194:0 195:0 196:0.038053427 197:0.01271682 198:0.32528615 199:0.32528615 200:0.026054669 201:0.077965513 202:0 203:0 204:0 205:0.015240212 206:0.0050930241 207:0.32528615 208:0.32528615 209:0.093104981 210:0.27860564 211:0 212:0 213:0 214:0.050737895 215:0.016955756 216:0.32528615 217:0.024856649 218:0.029703163 219:0.088883199 220:0 221:0.36679623 222:0 223:0.097586572 224:0.03261172 225:0.024856649 226:0.074026428 227:0.0049505271 228:0.014813865 229:0 230:0.099452652 231:0 232:0.024914764 233:0.0083260788 234:0.074026428 235:0.3537173 236:0 237:0 238:0 239:0.36679623 240:0 241:0.36679623 242:0.13542111 243:0.3537173 244:0.36679623 245:0 246:0 247:0 248:0.039109841 249:0 250:0.10014234 251:0.033465814 252:0.36679623 253:0.13193709 254:0 255:0 256:0 257:0 258:0 259:0.032262646 260:0.010781636 261:0.13193709 262:0.26058134 263:0 264:0 265:0 266:0 267:0 268:0.032451283 269:0.010844677 270:0.26058134 271:0.44004127 272:0 273:0 274:0 275:0 276:0 277:0 278:0 279:0.44004127 280:0.44004127 281:0 282:0 283:0 284:0 285:0 286:0.20803382 287:0.069521256 288:0.44004127 289:0.23529607 290:0.0049701883 291:0.0148727 292:0 293:0 294:0 295:0.0029072226 296:0.00097154529 297:0.23529607 298:0.13312088 299:0.017760707 300:0.053146809 301:0 302:0 303:0 304:0.0096787587 305:0.0032344793 306:0.13312088 307:0.40125498 308:0 309:0 310:0 311:0 312:0 313:0.40125498 314:0.13504449 315:0.40125498 316:0.40125498 317:0.028966414 318:0.086678214 319:0 320:0 321:0 322:0.11500907 323:0.03843401 324:0.40125498 
0 0 0.068632588115026358 0 0 1:0.010862378 2:0.034976501 3:0.10466302 4:0 5:0.13626702 6:0 7:0 8:0 9:0.010862378 10:0.12717418 11:0.11179549 12:0.3345347 13:0 14:0.33375892 15:0 16:0.25520599 17:0.085285567 18:0.12717418 19:0.0043449504 20:0.058364727 21:0.17464952 22:0 23:0.40603337 24:0 25:0 26:0 27:0.0043449504 28:0.050869666 29:0.18375631 30:0.40603337 31:0 32:0.40603337 33:0 34:0.2262914 35:0.075622804 36:0.050869666 37:0.11038505 38:0.051296256 39:0.15349796 40:0 41:0.37891304 42:0 43:0.38838726 44:0.13452187 45:0.11038505 46:0 47:0 48:0 49:0 50:0.10492685 51:0 52:0.044960462 53:0.015025035 54:0 55:0.044154011 56:0.15458372 57:0.38838726 58:0 59:0.38838726 60:0 61:0.37092242 62:0.12395607 63:0.044154011 64:0 65:0.017508691 66:0.052392479 67:0 68:0.3633543 69:0 70:0.045223348 71:0.015112887 72:0 73:0 74:0 75:0 76:0 77:0 78:0 79:0 80:0 81:0 82:0 83:0 84:0 85:0 86:0 87:0 88:0 89:0 90:0 91:0 92:0 93:0 94:0 95:0 96:0 97:0 98:0 99:0 100:0 101:0 102:0 103:0 104:0 105:0 106:0 107:0 108:0 109:0.0046427445 110:0.093534358 111:0.27989048 112:0 113:0.29256013 114:0 115:0 116:0 117:0.0046427445 118:0.025285183 119:0.13009267 120:0.33460647 121:0 122:0.33460647 123:0 124:0.0065296432 125:0.0021820974 126:0.025285183 127:0.044925537 128:0.10974303 129:0.32839298 130:0 131:0.33460647 132:0 133:0 134:0 135:0.044925537 136:0.21749564 137:0.13484885 138:0.33460647 139:0 140:0.33460647 141:0 142:0.090784274 143:0.030338587 144:0.21749564 145:0.10265281 146:0.064206645 147:0.1921301 148:0 149:0.36356872 150:0 151:0.0090996297 152:0.003040944 153:0.10265281 154:0.2127517 155:0.0073013129 156:0.021848228 157:0 158:0.099111304 159:0 160:0.004678492 161:0.0015634712 162:0.2127517 163:0.36356872 164:0.055979397 165:0.16751109 166:0 167:0.36356872 168:0 169:0.071445793 170:0.023875991 171:0.36356872 172:0.36356872 173:0.00064840954 174:0.0019402811 175:0 176:0.053791557 177:0 178:0.018971318 179:0.006339882 180:0.36356872 181:0.20507134 182:0.0012437234 183:0.0037216945 184:0 185:0.017941481 186:0 187:0.054953881 188:0.018364655 189:0.20507134 190:0.11813461 191:0.014561224 192:0.043572731 193:0 194:0.052303743 195:0 196:0.086954646 197:0.029058782 198:0.11813461 199:0.32741997 200:0.023509523 201:0.070349462 202:0 203:0.11563746 204:0 205:0.22572081 206:0.07543204 207:0.32741997 208:0.32741997 209:0.1359442 210:0.32741997 211:0 212:0.32741997 213:0 214:0.32741997 215:0.15277679 216:0.32741997 217:0.11299957 218:0.043810498 219:0.13109772 220:0 221:0.32002234 222:0 223:0.10045434 224:0.033570074 225:0.11299957 226:0.32002234 227:0.038153384 228:0.11416919 229:0 230:0.32002234 231:0 232:0.11205379 233:0.03744648 234:0.32002234 235:0.27303916 236:0.011492066 237:0.034388646 238:0 239:0.32002234 240:0 241:0.18028282 242:0.060247354 243:0.27303916 244:0.32002234 245:0.0019153443 246:0.0057314401 247:0 248:0.076548941 249:0 250:0.053218998 251:0.017784854 252:0.32002234 253:0.34999529 254:0.01672028 255:0.05003326 256:0 257:0.10110807 258:0 259:0.055018928 260:0.018386407 261:0.34999529 262:0.34999529 263:0 264:0 265:0 266:0.0091081811 267:0 268:0.0082502039 269:0.0027570734 270:0.34999529 271:0.34999529 272:0 273:0 274:0 275:0 276:0 277:0 278:0 279:0.34999529 280:0.34999529 281:0 282:0 283:0 284:0 285:0 286:0 287:0 288:0.34999529 289:0.2824322 290:0.011952214 291:0.035765581 292:0 293:0.050193641 294:0 295:0.06734363 296:0.022505088 297:0.2824322 298:0.2824322 299:0.072494186 300:0.21693006 301:0 302:0.2824322 303:0 304:0.20436637 305:0.068295769 306:0.2824322 307:0.2824322 308:0 309:0 310:0 311:0 312:0 313:0.017528985 314:0.0058578793 315:0.2824322 316:0.2824322 317:0.011167587 318:0.033417549 319:0 320:0.2824322 321:0 322:0.2824322 323:0.1020788 324:0.2824322 
0.16213097455250253 0.38927754243327595 0.26742861298775966 0.35963602787597859 0.35834452699850677 1:0 2:0.064720385 3:0.1936679 4:0 5:0.44291002 6:0 7:0.13046786 8:0.043600179 9:0 10:0.0042637209 11:0.040373474 12:0.12081236 13:0 14:0.44291002 15:0 16:0.22730525 17:0.075961605 18:0.0042637209 19:0 20:0.037918337 21:0.11346573 22:0 23:0.44291002 24:0 25:0 26:0 27:0 28:0.021425106 29:0.078505799 30:0.23491839 31:0 32:0.44291002 33:0 34:0 35:0 36:0.021425106 37:0.059434861 38:0.032322668 39:0.096721381 40:0 41:0.40103063 42:0 43:0.14478548 44:0.048384886 45:0.059434861 46:0.044576146 47:0 48:0 49:0 50:0.078038156 51:0 52:0 53:0 54:0.044576146 55:0.31920353 56:0.060658075 57:0.18151142 58:0 59:0.40103063 60:0 61:0 62:0 63:0.31920353 64:0.33337426 65:0 66:0 67:0 68:0.40103063 69:0 70:0 71:0 72:0.33337426 73:0 74:0 75:0 76:0 77:0.21495783 78:0 79:0 80:0 81:0 82:0 83:0 84:0 85:0 86:0 87:0 88:0 89:0 90:0 91:0.5621919 92:0 93:0 94:0 95:0.5621919 96:0 97:0 98:0 99:0.5621919 100:0 101:0 102:0 103:0 104:0 105:0 106:0 107:0 108:0 109:0 110:0.03977618 111:0.11902502 112:0 113:0.46987596 114:0 115:0 116:0 117:0 118:0.010420258 119:0.059376452 120:0.17767629 121:0 122:0.46987596 123:0 124:0 125:0 126:0.010420258 127:0 128:0.063389421 129:0.18968491 130:0 131:0.46987596 132:0 133:0 134:0 135:0 136:0 137:0.046055131 138:0.13781399 139:0 140:0.46987596 141:0 142:0 143:0 144:0 145:0.09053991 146:0.053136505 147:0.15900454 148:0 149:0.27324507 150:0 151:0 152:0 153:0.09053991 154:0.27324507 155:0.069200538 156:0.2070744 157:0 158:0.13584226 159:0 160:0.18180256 161:0.060755383 162:0.27324507 163:0.034837641 164:0.076763116 165:0.22970444 166:0 167:0.27324507 168:0 169:0.21204844 170:0.070862859 171:0.034837641 172:0.27324507 173:0.11382868 174:0.27324507 175:0 176:0.27324507 177:0 178:0.27324507 179:0.23218653 180:0.27324507 181:0.22097769 182:0.017753119 183:0.053124107 184:0 185:0.034251023 186:0 187:0.32125425 188:0.1224817 189:0.22097769 190:0.026335666 191:0 192:0 193:0 194:0.027847925 195:0 196:0.11568663 197:0.038660541 198:0.026335666 199:0.32125425 200:0.047285717 201:0.14149667 202:0 203:0.32125425 204:0 205:0.32125425 206:0.30039257 207:0.32125425 208:0.079015911 209:0.015070562 210:0.045096699 211:0 212:0.32125425 213:0 214:0.32125425 215:0.11447205 216:0.079015911 217:0 218:0.064299822 219:0.1924092 220:0 221:0.42760608 222:0 223:0 224:0 225:0 226:0.0065321047 227:0.038709223 228:0.11583244 229:0 230:0.42760608 231:0 232:0 233:0 234:0.0065321047 235:0 236:0.078328751 237:0.23438883 238:0 239:0.42760608 240:0 241:0 242:0 243:0 244:0.0087094717 245:0.1215044 246:0.36358705 247:0 248:0.42760608 249:0 250:0 251:0 252:0.0087094717 253:0.05179093 254:0.0386592 255:0.11568307 256:0 257:0.24189723 258:0 259:0.22145809 260:0.074007437 261:0.05179093 262:0.27763048 263:0.035580635 264:0.10647076 265:0 266:0.22706389 267:0 268:0.27763048 269:0.16692623 270:0.27763048 271:0.074343219 272:0.17783681 273:0.27763048 274:0 275:0.27763048 276:0 277:0.1264502 278:0.042257514 279:0.074343219 280:0.22952157 281:0.10534818 282:0.27763048 283:0 284:0.27763048 285:0 286:0.22335789 287:0.07464239 288:0.22952157 289:0.31879541 290:0.058163185 291:0.17404582 292:0 293:0.31879541 294:0 295:0.31879541 296:0.14972283 297:0.31879541 298:0.14773163 299:0.039861824 300:0.11928131 301:0 302:0.31879541 303:0 304:0.11576682 305:0.038687337 306:0.14773163 307:0.31879541 308:0.035322186 309:0.10569704 310:0 311:0.31879541 312:0 313:0.10116788 314:0.033808555 315:0.31879541 316:0.088525981 317:0.015944727 318:0.04771252 319:0 320:0.10635649 321:0 322:0 323:0 324:0.088525981 
0.078596879031686273 0.19314689650154915 0 0 0 1:0.047532964 2:0.044435296 3:0.13296734 4:0 5:0.092256799 6:0 7:0 8:0 9:0.047532964 10:0.14194848 11:0.086161815 12:0.25782901 13:0 14:0.30632812 15:0 16:0.19902185 17:0.066509776 18:0.14194848 19:0.11147881 20:0.13657729 21:0.36466497 22:0 23:0.36466497 24:0 25:0 26:0 27:0.11147881 28:0.17781267 29:0.16848843 30:0.36466497 31:0 32:0.36466497 33:0 34:0.20018552 35:0.066898666 36:0.17781267 37:0.12035434 38:0.042315137 39:0.12662305 40:0 41:0.5055666 42:0 43:0.35422778 44:0.11837701 45:0.12035434 46:0 47:0 48:0 49:0 50:0.053584676 51:0 52:0 53:0 54:0 55:0.13420279 56:0.081130423 57:0.2427728 58:0 59:0.5055666 60:0 61:0.35629898 62:0.11906917 63:0.13420279 64:0.042454224 65:0 66:0 67:0 68:0.21983372 69:0 70:0 71:0 72:0.042454224 73:0 74:0 75:0 76:0 77:0 78:0 79:0 80:0 81:0 82:0 83:0 84:0 85:0 86:0 87:0 88:0 89:0 90:0 91:0.49875313 92:0 93:0 94:0 95:0 96:0 97:0 98:0 99:0.49875313 100:0.49875313 101:0 102:0 103:0 104:0 105:0 106:0 107:0 108:0.49875313 109:0.051197816 110:0.080054261 111:0.23955292 112:0 113:0.40267569 114:0 115:0 116:0 117:0.051197816 118:0.12261035 119:0.093231402 120:0.27898353 121:0 122:0.40267569 123:0 124:0.1311291 125:0.04382116 126:0.12261035 127:0.03437113 128:0.035452168 129:0.1060864 130:0 131:0.40267569 132:0 133:0 134:0 135:0.03437113 136:0.18940996 137:0.053437017 138:0.15990366 139:0 140:0.40267569 141:0 142:0.15754752 143:0.052649755 144:0.18940996 145:0.11012957 146:0.060843926 147:0.18206796 148:0 149:0.26539466 150:0 151:0.19467078 152:0.065055713 153:0.11012957 154:0.17022294 155:0.034216348 156:0.10238837 157:0 158:0.089767784 159:0 160:0.16747704 161:0.055968028 162:0.17022294 163:0.26539466 164:0.087185048 165:0.26089057 166:0 167:0.26539466 168:0 169:0.26539466 170:0.089222454 171:0.26539466 172:0.26539466 173:0.077329189 174:0.23139834 175:0 176:0.26539466 177:0 178:0.26539466 179:0.090588816 180:0.26539466 181:0.17508143 182:0.034043621 183:0.10187142 184:0 185:0.14597493 186:0 187:0.093887419 188:0.031375576 189:0.17508143 190:0.14156325 191:0.065025464 192:0.19458078 193:0 194:0.18373664 195:0 196:0.13516705 197:0.045170546 198:0.14156325 199:0.28031299 200:0.071802095 201:0.21485907 202:0 203:0.28031299 204:0 205:0.17160229 206:0.05734656 207:0.28031299 208:0.28031299 209:0.1885298 210:0.28031299 211:0 212:0.28031299 213:0 214:0.28031299 215:0.093833692 216:0.28031299 217:0.012933077 218:0.067508996 219:0.20201266 220:0 221:0.31334355 222:0 223:0.21321277 224:0.071251974 225:0.012933077 226:0.14324497 227:0.037108783 228:0.11104346 229:0 230:0.31334355 231:0 232:0.089408904 233:0.029878909 234:0.14324497 235:0.11950354 236:0.056923036 237:0.17033522 238:0 239:0.2160679 240:0 241:0.31334355 242:0.23460706 243:0.11950354 244:0.31334355 245:0.076320454 246:0.22837913 247:0 248:0.068107814 249:0 250:0.31334355 251:0.15076736 252:0.31334355 253:0.26853746 254:0.0664832 255:0.19894271 256:0 257:0.2114128 258:0 259:0.042555898 260:0.01422147 261:0.26853746 262:0.26853746 263:0.05807 264:0.17376725 265:0 266:0.26561841 267:0 268:0.081568874 269:0.027258929 270:0.26853746 271:0.26853746 272:0.094931997 273:0.26853746 274:0 275:0.05233755 276:0 277:0.082652517 278:0.027621018 279:0.26853746 280:0.26853746 281:0.11420251 282:0.26853746 283:0 284:0.037570368 285:0 286:0.19009002 287:0.063524753 288:0.26853746 289:0.29047865 290:0.032649107 291:0.097698361 292:0 293:0.2046714 294:0 295:0.071815103 296:0.023999361 297:0.29047865 298:0.29047865 299:0.075699553 300:0.22652172 301:0 302:0.18654917 303:0 304:0.073996574 305:0.024728397 306:0.29047865 307:0.29047865 308:0.089563839 309:0.26800814 310:0 311:0.011641696 312:0 313:0.21374191 314:0.071428806 315:0.29047865 316:0.29047865 317:0.057485666 318:0.17201835 319:0 320:0.04290938 321:0 322:0.018981835 323:0.0063433964 324:0.29047865 
0 0 0 0.028867821163045624 0 1:0.054542549 2:0.018544253 3:0.055491474 4:0 5:0.10049165 6:0 7:0 8:0 9:0.054542549 10:0.27886963 11:0.05718866 12:0.17113028 13:0 14:0.26911163 15:0 16:0.062571138 17:0.02091023 18:0.27886963 19:0.065167442 20:0.089601919 21:0.26812312 22:0 23:0.36050543 24:0 25:0 26:0 27:0.065167442 28:0.31766415 29:0.15555543 30:0.36050543 31:0 32:0.36050543 33:0 34:0.083428174 35:0.027880304 36:0.31766415 37:0.24905217 38:0.044362329 39:0.13274902 40:0 41:0.4119412 42:0 43:0.13315068 44:0.044496734 45:0.24905217 46:0.042934779 47:0 48:0 49:0 50:0.17071013 51:0 52:0.022191778 53:0.0074161217 54:0.042934779 55:0.24891885 56:0.084786467 57:0.25371331 58:0 59:0.44574484 60:0 61:0.17753421 62:0.05932897 63:0.24891885 64:0.01004931 65:0.0022749328 66:0.006807439 67:0 68:0.44574484 69:0 70:0.029589035 71:0.00988816 72:0.01004931 73:0.57568842 74:0 75:0 76:0 77:0.57568842 78:0 79:0 80:0 81:0.57568842 82:0 83:0 84:0 85:0 86:0 87:0 88:0 89:0 90:0 91:0 92:0 93:0 94:0 95:0 96:0 97:0 98:0 99:0 100:0 101:0 102:0 103:0 104:0 105:0 106:0 107:0 108:0 109:0.0061289612 110:0.071881272 111:0.21509616 112:0 113:0.4203113 114:0 115:0 116:0 117:0.0061289612 118:0.052995987 119:0.10613336 120:0.31759101 121:0 122:0.4203113 123:0 124:0.040330105 125:0.013477647 126:0.052995987 127:0.012288262 128:0.030831115 129:0.092258453 130:0 131:0.4203113 132:0 133:0 134:0 135:0.012288262 136:0.17980418 137:0.060796298 138:0.18192527 139:0 140:0.4203113 141:0 142:0.078650117 143:0.026283555 144:0.17980418 145:0.12091316 146:0.059703816 147:0.17865595 148:0 149:0.34849259 150:0 151:0.05676765 152:0.018970799 153:0.12091316 154:0.21302254 155:0.0087865451 156:0.026292594 157:0 158:0.23127793 159:0 160:0.0094612734 161:0.0031617994 162:0.21302254 163:0.34849259 164:0.053027529 165:0.15867797 166:0 167:0.34849259 168:0 169:0.11070594 170:0.036996074 171:0.34849259 172:0.34849259 173:0.0088379206 174:0.026446329 175:0 176:0.10791139 177:0 178:0.018450988 179:0.006166012 180:0.34849259 181:0.23276426 182:0 183:0 184:0 185:0 186:0 187:0 188:0 189:0.23276426 190:0.27247125 191:0 192:0 193:0 194:0 195:0 196:0 197:0 198:0.27247125 199:0.42246056 200:0 201:0 202:0 203:0.075289801 204:0 205:0 206:0 207:0.42246056 208:0.42246056 209:0 210:0 211:0 212:0.13921191 213:0 214:0 215:0 216:0.42246056 217:0.028491439 218:0 219:0 220:0 221:0.37738636 222:0 223:0 224:0 225:0.028491439 226:0.20566119 227:0.0026356359 228:0.0078867981 229:0 230:0.37738636 231:0 232:0.016759176 233:0.0056006373 234:0.20566119 235:0.14492323 236:0 237:0 238:0 239:0.37738636 240:0 241:0.08685495 242:0.029025402 243:0.14492323 244:0.37738636 245:0 246:0 247:0 248:0.37738636 249:0 250:0.065141208 251:0.021769049 252:0.37738636 253:0.23960581 254:0.0043463069 255:0.013005758 256:0 257:0.26284313 258:0 259:0.027636798 260:0.0092357565 261:0.23960581 262:0.32627669 263:0.011170802 264:0.033427291 265:0 266:0.22755791 267:0 268:0.088693887 269:0.029640013 270:0.32627669 271:0.32627669 272:0 273:0 274:0 275:0.13305761 276:0 277:0 278:0 279:0.32627669 280:0.32627669 281:0.059339181 282:0.17756495 283:0 284:0.17066844 285:0 286:0.16263242 287:0.054348998 288:0.32627669 289:0.29321226 290:0.016994752 291:0.05085478 292:0 293:0.17952894 294:0 295:0.043625832 296:0.014579024 297:0.29321226 298:0.29321226 299:0.0067979004 300:0.02034191 301:0 302:0.29321226 303:0 304:0 305:0 306:0.29321226 307:0.29321226 308:0.051712003 309:0.1547417 310:0 311:0.13464668 312:0 313:0.14034881 314:0.046902161 315:0.29321226 316:0.29321226 317:0.053674851 318:0.1606151 319:0 320:0.28394726 321:0 322:0.093300268 323:0.031179313 324:0.29321226 
0.031506338193088998 0 0 0 0 1:0 2:0.010199188 3:0.03051986 4:0 5:0.041997556 6:0 7:0 8:0 9:0 10:0.14170405 11:0.046579361 12:0.13938321 13:0 14:0.41056719 15:0 16:0.16366616 17:0.0546945 18:0.14170405 19:0 20:0.13164562 21:0.39393395 22:0 23:0.26354274 24:0 25:0 26:0 27:0 28:0.080232367 29:0.33301112 30:0.41056719 31:0 32:0.41056719 33:0 34:0.16462311 35:0.055014297 36:0.080232367 37:0.12920228 38:0.021643709 39:0.064766228 40:0 41:0.46292564 42:0 43:0.26425001 44:0.088307947 45:0.12920228 46:0 47:0 48:0 49:0 50:0.1027826 51:0 52:0.044041667 53:0.014717989 54:0 55:0.073153898 56:0.11544099 57:0.34544349 58:0 59:0.46292564 60:0 61:0.26579511 62:0.088824287 63:0.073153898 64:0 65:0 66:0 67:0 68:0.46292564 69:0 70:0.044299182 71:0.014804047 72:0 73:0 74:0 75:0 76:0 77:0 78:0 79:0 80:0 81:0 82:0 83:0 84:0 85:0 86:0 87:0 88:0 89:0 90:0 91:0 92:0 93:0 94:0 95:0 96:0 97:0 98:0 99:0 100:0 101:0 102:0 103:0 104:0 105:0 106:0 107:0 108:0 109:0 110:0.1031554 111:0.3086803 112:0 113:0.39627498 114:0 115:0 116:0 117:0 118:0.010559547 119:0.16526157 120:0.39627498 121:0 122:0.39627498 123:0 124:0.028265618 125:0.0094458982 126:0.010559547 127:0 128:0.065781191 129:0.1968424 130:0 131:0.39627498 132:0 133:0 134:0 135:0 136:0.047349088 137:0.051558539 138:0.15428282 139:0 140:0.39627498 141:0 142:0.047472581 143:0.015864544 144:0.047349088 145:0.079973027 146:0.033870403 147:0.10135316 148:0 149:0.3645235 150:0 151:0.058367118 152:0.019505315 153:0.079973027 154:0.20514117 155:0 156:0 157:0 158:0.29286757 159:0 160:0.020402065 161:0.0068180296 162:0.20514117 163:0.30894324 164:0.0035729287 165:0.010691533 166:0 167:0.3645235 168:0 169:0.11436657 170:0.038219396 171:0.30894324 172:0.3645235 173:0.025584683 174:0.076558933 175:0 176:0.22814156 177:0 178:0.045746628 179:0.015287759 180:0.3645235 181:0.2514154 182:0 183:0 184:0 185:0 186:0 187:0 188:0 189:0.2514154 190:0.26521954 191:0.038585678 192:0.11546305 193:0 194:0 195:0 196:0.02610714 197:0.0087245703 198:0.26521954 199:0.38798285 200:0.018280411 201:0.054701846 202:0 203:0.10222532 204:0 205:0 206:0 207:0.38798285 208:0.38798285 209:0.096464202 210:0.28865767 211:0 212:0.01342071 213:0 214:0.065267853 215:0.021811426 216:0.38798285 217:0 218:0.01337574 219:0.040025316 220:0 221:0.38804772 222:0 223:0 224:0 225:0 226:0.02018938 227:0.010031804 228:0.030018983 229:0 230:0.38804772 231:0 232:0.012773787 233:0.0042687864 234:0.02018938 235:0.089671142 236:0.012345339 237:0.036941819 238:0 239:0.38804772 240:0 241:0.18858796 242:0.063022792 243:0.089671142 244:0.38804772 245:0.030863352 246:0.092354566 247:0 248:0.38804772 249:0 250:0.14144096 251:0.047267083 252:0.38804772 253:0.1251124 254:0.007338359 255:0.021959081 256:0 257:0.11633515 258:0 259:0.029740088 260:0.0099386405 261:0.1251124 262:0.33585185 263:0.081903413 264:0.24508573 265:0 266:0.33585185 267:0 268:0.011896035 269:0.0039754561 270:0.33585185 271:0.33585185 272:0.010243243 273:0.030651569 274:0 275:0.045807011 276:0 277:0 278:0 279:0.33585185 280:0.33585185 281:0.055093408 282:0.16486017 283:0 284:0.24580574 285:0 286:0 287:0 288:0.33585185 289:0.30706671 290:0.045617454 291:0.13650462 292:0 293:0.25743511 294:0 295:0 296:0 297:0.30706671 298:0.28013819 299:0.021061761 300:0.063024782 301:0 302:0.031123102 303:0 304:0.01221167 305:0.0040809363 306:0.28013819 307:0.30706671 308:0.093159765 309:0.27876875 310:0 311:0.15875313 312:0 313:0 314:0 315:0.30706671 316:0.30706671 317:0.083735459 318:0.25056747 319:0 320:0.017621795 321:0 322:0 323:0 324:0.30706671 
0 0.14652234177648085 0 0.02027446267003628 0 1:0.048453081 2:0.0059245462 3:0.017728502 4:0 5:0.13178334 6:0 7:0.017728483 8:0.0059245634 9:0.048453081 10:0.2488907 11:0.0078993924 12:0.023637997 13:0 14:0.26659906 15:0 16:0.14808556 17:0.049487725 18:0.2488907 19:0.056733247 20:0.069363192 21:0.20756114 22:0 23:0.36518639 24:0 25:0.023637973 26:0.0078994157 27:0.056733247 28:0.36518639 29:0.099165894 30:0.29674208 31:0 32:0.36518639 33:0 34:0.24611463 35:0.082247391 36:0.36518639 37:0.23458926 38:0.0018017966 39:0.0053916629 40:0 41:0.23385929 42:0 43:0.16963676 44:0.056689769 45:0.23458926 46:0.011492417 47:0 48:0 49:0 50:0.058550678 51:0 52:0.015592768 53:0.0052108429 54:0.011492417 55:0.38901275 56:0.03608042 57:0.10796621 58:0 59:0.41965562 60:0 61:0.33533171 62:0.11206225 63:0.38901275 64:0.015323221 65:0.0024975678 66:0.0074736467 67:0 68:0.41965562 69:0 70:0.038981922 71:0.013027107 72:0.015323221 73:0 74:0 75:0 76:0 77:0 78:0 79:0 80:0 81:0 82:0 83:0 84:0 85:0 86:0 87:0 88:0 89:0 90:0 91:0 92:0 93:0 94:0 95:0 96:0 97:0 98:0 99:0 100:0 101:0 102:0 103:0 104:0 105:0 106:0 107:0 108:0 109:0.0043878225 110:0.026851235 111:0.080349132 112:0 113:0.424458 114:0 115:0.0021210974 116:0.00070883526 117:0.0043878225 118:0.095192775 119:0.076709025 120:0.22954217 121:0 122:0.424458 123:0 124:0.036359135 125:0.012150615 126:0.095192775 127:0.070894673 128:0.049143765 129:0.14705689 130:0 131:0.424458 132:0 133:0 134:0 135:0.070894673 136:0.22350118 137:0.073461957 138:0.21982566 139:0 140:0.424458 141:0 142:0.042369463 143:0.014159167 144:0.22350118 145:0.11529535 146:0.058887452 147:0.1762131 148:0 149:0.35695896 150:0 151:0.05608657 152:0.018743197 153:0.11529535 154:0.07219021 155:0.013418245 156:0.040152445 157:0 158:0.25307494 159:0 160:0.013141653 161:0.0043917205 162:0.07219021 163:0.35695896 164:0.052045513 165:0.15573941 166:0 167:0.35695896 168:0 169:0.12700009 170:0.042441312 171:0.35695896 172:0.35695896 173:0.053129397 174:0.15898336 175:0 176:0.12246794 177:0 178:0.050800029 179:0.016976522 180:0.35695896 181:0.15455882 182:0.018997423 183:0.056847535 184:0 185:0 186:0 187:0 188:0 189:0.15455882 190:0.29809529 191:0.0054067154 192:0.016178956 193:0 194:0 195:0 196:0 197:0 198:0.29809529 199:0.39587122 200:0.11398449 201:0.34108508 202:0 203:0 204:0 205:0 206:0 207:0.39587122 208:0.39587122 209:0.032440286 210:0.097073697 211:0 212:0 213:0 214:0 215:0 216:0.39587122 217:0.096859358 218:0.040162697 219:0.12018211 220:0 221:0.3200869 222:0 223:0.0096796276 224:0.0032347697 225:0.096859358 226:0.31371212 227:0.025612639 228:0.076642744 229:0 230:0.3200869 231:0 232:0.030681806 233:0.010253347 234:0.31371212 235:0.16533357 236:0.022197142 237:0.066422097 238:0 239:0.3200869 240:0 241:0.13628891 242:0.045545414 243:0.16533357 244:0.3200869 245:0.031774998 246:0.095082566 247:0 248:0.3200869 249:0 250:0.21723659 251:0.072596736 252:0.3200869 253:0.28079712 254:0.0026570363 255:0.0079508359 256:0 257:0.19232962 258:0 259:0.052030053 260:0.017387575 261:0.28079712 262:0.28079712 263:0.014349693 264:0.042939756 265:0 266:0.050681565 267:0 268:0.024672711 269:0.0082452074 270:0.28079712 271:0.28079712 272:0.028616721 273:0.085631803 274:0 275:0.28079712 276:0 277:0.28079712 278:0.097501196 279:0.28079712 280:0.28079712 281:0.050475173 282:0.15104039 283:0 284:0.27567267 285:0 286:0.19972198 287:0.066743635 288:0.28079712 289:0.33257562 290:0.032713093 291:0.097890057 292:0 293:0.041234922 294:0 295:0 296:0 297:0.33257562 298:0.33257562 299:0.0093102315 300:0.027859762 301:0 302:0.037800245 303:0 304:0.032298584 305:0.01079362 306:0.33257562 307:0.33257562 308:0.031795986 309:0.09514536 310:0 311:0.26074716 312:0 313:0.030042341 314:0.010039624 315:0.33257562 316:0.33257562 317:0 318:0 319:0 320:0.098571293 321:0 322:0.080746464 323:0.026984055 324:0.33257562 
0.077906782500336239 0.024093360430043887 0.21075989816266313 0.0016657433791264665 0.1283423716671824 1:0.058144163 2:0.018063633 3:0.054053273 4:0 5:0.17260265 6:0 7:0.049897905 8:0.016675048 9:0.058144163 10:0.2175682 11:0.029408235 12:0.08800061 13:0 14:0.18519156 15:0 16:0.21431668 17:0.071621053 18:0.2175682 19:0.051693235 20:0.028726004 21:0.085959114 22:0 23:0.34905836 24:0 25:0.066530533 26:0.022233395 27:0.051693235 28:0.3331185 29:0.19984215 30:0.34905836 31:0 32:0.34905836 33:0 34:0.32776627 35:0.109534 36:0.3331185 37:0.24787621 38:0.022052266 39:0.065988623 40:0 41:0.16573843 42:0 43:0.22942702 44:0.076670676 45:0.24787621 46:0.046233255 47:0.0025171558 48:0.0075322604 49:0 50:0.11057633 51:0 52:0.01702684 53:0.0056900852 54:0.046233255 55:0.33548895 56:0.33548895 57:0.33548895 58:0 59:0.33548895 60:0 61:0.33548895 62:0.14205816 63:0.33548895 64:0.03364474 65:0.02947027 66:0.088185944 67:0 68:0.24006075 69:0 70:0.042567104 71:0.014225215 72:0.03364474 73:0.56378978 74:0 75:0 76:0 77:0.56378978 78:0 79:0 80:0 81:0.56378978 82:0 83:0 84:0 85:0 86:0.2019736 87:0 88:0 89:0 90:0 91:0 92:0 93:0 94:0 95:0 96:0 97:0 98:0 99:0 100:0 101:0 102:0 103:0 104:0 105:0 106:0 107:0 108:0 109:0.0015473322 110:0.03477278 111:0.10405333 112:0 113:0.30417019 114:0 115:0.019063193 116:0.0063706008 117:0.0015473322 118:0.11374472 119:0.13092695 120:0.30417019 121:0 122:0.30417019 123:0 124:0.12584318 125:0.04205469 126:0.11374472 127:0.072787911 128:0.12979589 129:0.30417019 130:0 131:0.30417019 132:0 133:0.030233519 134:0.010103537 135:0.072787911 136:0.30417019 137:0.11629813 138:0.30417019 139:0 140:0.30417019 141:0 142:0.2104447 143:0.070327103 144:0.30417019 145:0.19905396 146:0.11299327 147:0.28504911 148:0 149:0.23307702 150:0 151:0.10278164 152:0.034347903 153:0.19905396 154:0.24178052 155:0.023330016 156:0.069812253 157:0 158:0.049087163 159:0 160:0.016442593 161:0.00549484 162:0.24178052 163:0.28504911 164:0.090925567 165:0.27208367 166:0 167:0.21520092 168:0 169:0.17549334 170:0.058646947 171:0.28504911 172:0.28504911 173:0.077183865 174:0.2309633 175:0 176:0.2670449 177:0 178:0.11342335 179:0.037904143 180:0.28504911 181:0.30175239 182:0.0017852037 183:0.0053420109 184:0 185:0 186:0 187:0 188:0 189:0.30175239 190:0.32820293 191:0 192:0 193:0 194:0 195:0 196:0 197:0 198:0.32820293 199:0.32820293 200:0.037283607 201:0.11156654 202:0 203:0.26813298 204:0 205:0.15208282 206:0.050823424 207:0.32820293 208:0.32820293 209:0.0037797259 210:0.011310381 211:0 212:0.23463276 213:0 214:0.038379073 215:0.012825613 216:0.32820293 217:0.12930804 218:0.081012234 219:0.24241948 220:0 221:0.30378333 222:0 223:0.030979589 224:0.01035285 225:0.12930804 226:0.30378333 227:0.076421492 228:0.22868194 229:0 230:0.30378333 231:0 232:0.11897317 233:0.039758842 234:0.30378333 235:0.23506726 236:0.021748126 237:0.065078475 238:0 239:0.30378333 240:0 241:0.1561304 242:0.052176043 243:0.23506726 244:0.30378333 245:0.038360499 246:0.11478893 247:0 248:0.11934332 249:0 250:0.073793553 251:0.024660535 252:0.30378333 253:0.2971091 254:0.066175573 255:0.19802241 256:0 257:0.19184011 258:0 259:0.066820398 260:0.022330258 261:0.2971091 262:0.29043204 263:0.07195574 264:0.21531874 265:0 266:0.2971091 267:0 268:0.15466833 269:0.051687505 270:0.29043204 271:0.2971091 272:0.02317035 273:0.069334462 274:0 275:0.047149416 276:0 277:0.013847082 278:0.0046274639 279:0.2971091 280:0.2971091 281:0.027211389 282:0.081426814 283:0 284:0.16432616 285:0 286:0.065481454 287:0.021882797 288:0.2971091 289:0.29384214 290:0.062908672 291:0.1882465 292:0 293:0.29384214 294:0 295:0.19168897 296:0.064059131 297:0.29384214 298:0.27092102 299:0.014033258 300:0.041992836 301:0 302:0.29384214 303:0 304:0.03894899 305:0.013016069 306:0.27092102 307:0.29384214 308:0.035002213 309:0.10473994 310:0 311:0.18126008 312:0 313:0.06393525 314:0.021366075 315:0.29384214 316:0.29384214 317:0.021051787 318:0.062994845 319:0 320:0.14689817 321:0 322:0.0064914976 323:0.0021693446 324:0.29384214 
0 0 0 0.061144400618401859 0.12329410646039489 1:0.038671382 2:0.042646311 3:0.12761402 4:0 5:0.077342771 6:0 7:0 8:0 9:0.038671382 10:0.33656505 11:0.078019321 12:0.2334635 13:0 14:0.17436589 15:0 16:0 17:0 18:0.33656505 19:0.033363897 20:0.078172103 21:0.23392074 22:0 23:0.34929359 24:0 25:0 26:0 27:0.033363897 28:0.31950477 29:0.13654549 30:0.34929359 31:0 32:0.34929359 33:0 34:0 35:0 36:0.31950477 37:0.36083445 38:0.041047554 39:0.12282968 40:0 41:0.32351813 42:0 43:0 44:0 45:0.36083445 46:0.045724794 47:0.0093830135 48:0.028077448 49:0 50:0.13885179 51:0 52:0 53:0 54:0.045724794 55:0.34141248 56:0.085585654 57:0.25610426 58:0 59:0.37116227 60:0 61:0 62:0 63:0.34141248 64:0.039215133 65:0.023457535 66:0.070193619 67:0 68:0.37116227 69:0 70:0 71:0 72:0.039215133 73:0 74:0 75:0 76:0 77:0 78:0 79:0 80:0 81:0 82:0 83:0 84:0 85:0 86:0 87:0 88:0 89:0 90:0 91:0 92:0 93:0 94:0 95:0 96:0 97:0 98:0 99:0 100:0 101:0 102:0 103:0 104:0 105:0 106:0 107:0 108:0 109:0.0013212686 110:0.065920144 111:0.19725819 112:0 113:0.44963905 114:0 115:0 116:0 117:0.0013212686 118:0.043281108 119:0.06339056 120:0.1896887 121:0 122:0.44963905 123:0 124:0.032937326 125:0.011007104 126:0.043281108 127:0 128:0.077323116 129:0.23138025 130:0 131:0.44963905 132:0 133:0 134:0 135:0 136:0.078401975 137:0.049753994 138:0.14888294 139:0 140:0.44963905 141:0 142:0.043916427 143:0.014676136 144:0.078401975 145:0.15428783 146:0.011543946 147:0.034543786 148:0 149:0.32415286 150:0 151:0.068512052 152:0.02289558 153:0.15428783 154:0.32415286 155:0.0035116675 156:0.010508208 157:0 158:0.24610825 159:0 160:0.027404817 161:0.0091582313 162:0.32415286 163:0.32415286 164:0 165:0 166:0 167:0.32415286 168:0 169:0.091349386 170:0.030527437 171:0.32415286 172:0.32415286 173:0 174:0 175:0 176:0.1723906 177:0 178:0.036539748 179:0.012210974 180:0.32415286 181:0.34573495 182:0 183:0 184:0 185:0 186:0 187:0 188:0 189:0.34573495 190:0.34573495 191:0 192:0 193:0 194:0.0090518948 195:0 196:0.021689409 197:0.0072482382 198:0.34573495 199:0.34573495 200:0 201:0 202:0 203:0.03975933 204:0 205:0 206:0 207:0.34573495 208:0.34573495 209:0 210:0 211:0 212:0.18662791 213:0 214:0.054223523 215:0.018120596 216:0.34573495 217:0.013348148 218:0.07028728 219:0.21032636 220:0 221:0.33755332 222:0 223:0.086750835 224:0.028990604 225:0.013348148 226:0.14160548 227:0.02951896 228:0.088331982 229:0 230:0.33755332 231:0 232:0.046926335 233:0.015681965 234:0.14160548 235:0.20698683 236:0.037525084 237:0.11228937 238:0 239:0.33755332 240:0 241:0.33755332 242:0.11886954 243:0.20698683 244:0.33755332 245:0.015010031 246:0.044915736 247:0 248:0.22586544 249:0 250:0.18183357 251:0.060765587 252:0.33755332 253:0.25264609 254:0 255:0 256:0 257:0.32379684 258:0 259:0.010830262 260:0.0036192928 261:0.25264609 262:0.3035678 263:0 264:0 265:0 266:0.2947216 267:0 268:0.0043321047 269:0.0014477171 270:0.3035678 271:0.32379684 272:0 273:0 274:0 275:0.18727741 276:0 277:0 278:0 279:0.32379684 280:0.32379684 281:0 282:0 283:0 284:0.1961911 285:0 286:0 287:0 288:0.32379684 289:0.20757902 290:0 291:0 292:0 293:0.13036565 294:0 295:0 296:0 297:0.20757902 298:0.34730196 299:0.0027967279 300:0.0083688442 301:0 302:0.34730196 303:0 304:0.01133427 305:0.0037877238 306:0.34730196 307:0.34730196 308:0 309:0 310:0 311:0.091262653 312:0 313:0 314:0 315:0.34730196 316:0.34730196 317:0.01678036 318:0.050213043 319:0 320:0.19409701 321:0 322:0 323:0 324:0.34730196 
0.048325215767611653 0 0 0 0 1:0.011198418 2:0.068522178 3:0.20504448 4:0 5:0.081851549 6:0 7:0 8:0 9:0.011198418 10:0.20644161 11:0.20382197 12:0.35515547 13:0 14:0.25655144 15:0 16:0.08113277 17:0.027113214 18:0.20644161 19:0.0044793664 20:0.13409445 21:0.35515547 22:0 23:0.35515547 24:0 25:0 26:0 27:0.0044793664 28:0.093405165 29:0.26324069 30:0.35515547 31:0 32:0.35515547 33:0 34:0.081607148 35:0.027271748 36:0.093405165 37:0.22576667 38:0.094466291 39:0.2826792 40:0 41:0.36379558 42:0 43:0.23934063 44:0.079983637 45:0.22576667 46:0.02261639 47:0 48:0 49:0 50:0.24247459 51:0 52:0.09573625 53:0.031993456 54:0.02261639 55:0.096715525 56:0.16230412 57:0.36379558 58:0 59:0.36379558 60:0 61:0.24074011 62:0.080451325 63:0.096715525 64:0.059618469 65:0.039613876 66:0.11853941 67:0 68:0.36379558 69:0 70:0.096296027 71:0.032180518 72:0.059618469 73:0 74:0 75:0 76:0 77:0 78:0 79:0 80:0 81:0 82:0 83:0 84:0 85:0 86:0 87:0 88:0 89:0 90:0 91:0.42335078 92:0.091914289 93:0.27504259 94:0 95:0 96:0 97:0 98:0 99:0.42335078 100:0.42335078 101:0.13987999 102:0.41857424 103:0 104:0 105:0 106:0 107:0 108:0.42335078 109:0 110:0.10355672 111:0.30988118 112:0 113:0.39543769 114:0 115:0 116:0 117:0 118:0.023287265 119:0.10806499 120:0.32337132 121:0 122:0.39543769 123:0 124:0.039444666 125:0.013181748 126:0.023287265 127:0 128:0.1057665 129:0.31649372 130:0 131:0.39543769 132:0 133:0 134:0 135:0 136:0.048828289 137:0.051522363 138:0.15417452 139:0 140:0.39543769 141:0 142:0.044553358 143:0.014888988 144:0.048828289 145:0.13475497 146:0.084132299 147:0.25175518 148:0 149:0.2853322 150:0 151:0.088122733 152:0.029449144 153:0.13475497 154:0.2853322 155:0.090994164 156:0.27228895 157:0 158:0.28476474 159:0 160:0.035249088 161:0.011779658 162:0.2853322 163:0.25494304 164:0.027450344 165:0.082141832 166:0 167:0.2853322 168:0 169:0.099535994 170:0.033263266 171:0.25494304 172:0.2853322 173:0.085005343 174:0.25436836 175:0 176:0.078490391 177:0 178:0.039814387 179:0.013305304 180:0.2853322 181:0.30900812 182:0.086712904 183:0.25947806 184:0 185:0 186:0 187:0 188:0 189:0.30900812 190:0.30900812 191:0.081607409 192:0.24420048 193:0 194:0 195:0 196:0 197:0 198:0.30900812 199:0.30900812 200:0.078920707 201:0.23616089 202:0 203:0 204:0 205:0 206:0 207:0.30900812 208:0.30900812 209:0.054789592 210:0.16395135 211:0 212:0 213:0 214:0 215:0 216:0.30900812 217:0 218:0.061451875 219:0.18388747 220:0 221:0.35599715 222:0 223:0.024458215 224:0.0081735058 225:0 226:0.011865536 227:0.017844608 228:0.053397872 229:0 230:0.35599715 231:0 232:0.010837173 233:0.0036215989 234:0.011865536 235:0.11550057 236:0.038492221 237:0.11518341 238:0 239:0.35599715 240:0 241:0.35599715 242:0.15519996 243:0.11550057 244:0.35599715 245:0.064055607 246:0.19167814 247:0 248:0.22710963 249:0 250:0.18060879 251:0.060356289 252:0.35599715 253:0.094955511 254:0.0047985637 255:0.014359133 256:0 257:0.020326411 258:0 259:0.022019656 260:0.0073586009 261:0.094955511 262:0.19152243 263:0.017147416 264:0.051311608 265:0 266:0.0033877348 267:0 268:0.0088078622 269:0.0029434406 270:0.19152243 271:0.37776381 272:0.15429401 273:0.37776381 274:0 275:0 276:0 277:0 278:0 279:0.37776381 280:0.37776381 281:0.14347644 282:0.37776381 283:0 284:0 285:0 286:0 287:0 288:0.37776381 289:0.12609053 290:0.011822722 291:0.03537802 292:0 293:0 294:0 295:0 296:0 297:0.12609053 298:0.18728381 299:0.050937567 300:0.15242404 301:0 302:0 303:0 304:0 305:0 306:0.18728381 307:0.39546111 308:0.063636795 309:0.19042484 310:0 311:0 312:0 313:0 314:0 315:0.39546111 316:0.39546111 317:0.2112423 318:0.39546111 319:0 320:0 321:0 322:0 323:0 324:0.39546111 
0.013452245752299688 0 0 0 0 1:0.069476694 2:0.054745778 3:0.16382024 4:0 5:0.22759318 6:0 7:0 8:0 9:0.069476694 10:0.19947876 11:0.078972287 12:0.23631521 13:0 14:0.39624423 15:0 16:0.21190614 17:0.070815489 18:0.19947876 19:0.032270245 20:0.097199008 21:0.29085648 22:0 23:0.39624423 24:0 25:0 26:0 27:0.032270245 28:0.097356141 29:0.10562404 30:0.31606722 31:0 32:0.39624423 33:0 34:0.11998054 35:0.040095493 36:0.097356141 37:0.14559899 38:0.028863348 39:0.086370148 40:0 41:0.51176625 42:0 43:0.36539248 44:0.12210806 45:0.14559899 46:0 47:0 48:0 49:0 50:0.077868707 51:0 52:0 53:0 54:0 55:0.14741458 56:0.045013517 57:0.13469729 58:0 59:0.51176625 60:0 61:0.20688398 62:0.069137171 63:0.14741458 64:0.21026723 65:0.044802781 66:0.13406701 67:0 68:0.21513824 69:0 70:0 71:0 72:0.21026723 73:0 74:0 75:0 76:0 77:0 78:0 79:0 80:0 81:0 82:0 83:0 84:0 85:0 86:0 87:0 88:0 89:0 90:0 91:0.40180516 92:0.14140637 93:0.40180516 94:0 95:0 96:0 97:0 98:0 99:0.40180516 100:0.40180516 101:0.099226527 102:0.29692364 103:0 104:0 105:0 106:0.25226361 107:0.084302269 108:0.40180516 109:0 110:0.078364447 111:0.23449633 112:0 113:0.39480782 114:0 115:0 116:0 117:0 118:0.14438921 119:0.078325175 120:0.23437835 121:0 122:0.39480782 123:0 124:0 125:0 126:0.14438921 127:0 128:0.11695395 129:0.34997088 130:0 131:0.39480782 132:0 133:0 134:0 135:0 136:0.15784627 137:0.047732927 138:0.14283495 139:0 140:0.39480782 141:0 142:0 143:0 144:0.15784627 145:0.30400094 146:0.038692243 147:0.11578159 148:0 149:0.30400094 150:0 151:0 152:0 153:0.30400094 154:0.30400094 155:0.086941428 156:0.26016191 157:0 158:0.064206123 159:0 160:0 161:0 162:0.30400094 163:0.30400094 164:0.017834673 165:0.053367991 166:0 167:0.17014584 168:0 169:0 170:0 171:0.30400094 172:0.30400094 173:0.062380843 174:0.18666728 175:0 176:0.0096565103 177:0 178:0 179:0 180:0.30400094 181:0.2842398 182:0.11953954 183:0.2842398 184:0 185:0 186:0 187:0 188:0 189:0.2842398 190:0.2842398 191:0.068027586 192:0.20356449 193:0 194:0.068342224 195:0 196:0.19393419 197:0.064809568 198:0.2842398 199:0.2842398 200:0.067803271 201:0.20289324 202:0 203:0 204:0 205:0 206:0 207:0.2842398 208:0.2760388 209:0.082286216 210:0.24623109 211:0 212:0.222038 213:0 214:0.094449356 215:0.031563394 216:0.2760388 217:0.02177163 218:0.073440209 219:0.21976107 220:0 221:0.32382533 222:0 223:0.09376245 224:0.031333763 225:0.02177163 226:0.12057041 227:0.030612091 228:0.091602854 229:0 230:0.12971133 231:0 232:0.020848107 233:0.006967071 234:0.12057041 235:0.32382533 236:0.014939127 237:0.044703465 238:0 239:0.32382533 240:0 241:0.32382533 242:0.13011436 243:0.32382533 244:0.32382533 245:0.10604998 246:0.31734079 247:0 248:0.034770217 249:0 250:0.096218064 251:0.032154389 252:0.32382533 253:0.21378525 254:0.032724164 255:0.097922824 256:0 257:0 258:0 259:0 260:0 261:0.21378525 262:0.30940291 263:0.092880607 264:0.27793312 265:0 266:0 267:0 268:0 269:0 270:0.30940291 271:0.30940291 272:0.12109346 273:0.30940291 274:0 275:0 276:0 277:0 278:0 279:0.30940291 280:0.30940291 281:0.16870624 282:0.30940291 283:0 284:0 285:0 286:0 287:0 288:0.30940291 289:0.28737223 290:0.067943521 291:0.20331216 292:0 293:0 294:0 295:0 296:0 297:0.28737223 298:0.28737223 299:0.15601061 300:0.28737223 301:0 302:0.086665235 303:0 304:0 305:0 306:0.28737223 307:0.28737223 308:0.094878033 309:0.28391016 310:0 311:0 312:0 313:0 314:0 315:0.28737223 316:0.28737223 317:0.093204677 318:0.27890286 319:0 320:0 321:0 322:0 323:0 324:0.28737223 
0 0 0.084591813368592977 0 0 1:0.0071061221 2:0.065373912 3:0.19562368 4:0 5:0.23440444 6:0 7:0 8:0 9:0.0071061221 10:0.10901397 11:0.1586532 12:0.35760227 13:0 14:0.35760227 15:0 16:0.22581345 17:0.075463079 18:0.10901397 19:0 20:0.11061493 21:0.33100203 22:0 23:0.35760227 24:0 25:0 26:0 27:0 28:0.0057536322 29:0.1643402 30:0.35760227 31:0 32:0.35760227 33:0 34:0.066690825 35:0.022286961 36:0.0057536322 37:0.13024272 38:0.08925391 39:0.26708138 40:0 41:0.37731057 42:0 43:0.37731057 44:0.13192867 45:0.13024272 46:0.010234028 47:0.0050553218 48:0.015127394 49:0 50:0.2180973 51:0 52:0.045896266 53:0.015337767 54:0.010234028 55:0.053521343 56:0.13406155 57:0.37731057 58:0 59:0.37731057 60:0 61:0.12843452 62:0.042920668 63:0.053521343 64:0.16028386 65:0.031939946 66:0.095576294 67:0 68:0.35418859 69:0 70:0.1227471 71:0.041020028 72:0.16028386 73:0 74:0 75:0 76:0 77:0 78:0 79:0 80:0 81:0 82:0 83:0 84:0 85:0 86:0 87:0 88:0 89:0 90:0 91:0.37502912 92:0.095849402 93:0.286818 94:0 95:0.14952676 96:0 97:0.37502912 98:0.1863763 99:0.37502912 100:0.37502912 101:0.082530193 102:0.2469618 103:0 104:0 105:0 106:0.26262006 107:0.087763235 108:0.37502912 109:0 110:0.15355285 111:0.3670724 112:0 113:0.3670724 114:0 115:0 116:0 117:0 118:0.078358188 119:0.10040827 120:0.30045962 121:0 122:0.3670724 123:0 124:0.071166173 125:0.023782549 126:0.078358188 127:0 128:0.12540057 129:0.3670724 130:0 131:0.3670724 132:0 133:0.022695376 134:0.0075843963 135:0 136:0.087405004 137:0.032975681 138:0.09867581 139:0 140:0.3670724 141:0 142:0.057157189 143:0.019100973 144:0.087405004 145:0.2781069 146:0.04304504 147:0.12880684 148:0 149:0.2781069 150:0 151:0.095897213 152:0.032047249 153:0.2781069 154:0.2781069 155:0.048723888 156:0.14580041 157:0 158:0.2781069 159:0 160:0.25337142 161:0.084672488 162:0.2781069 163:0.2781069 164:0.011105545 165:0.033232026 166:0 167:0.19758157 168:0 169:0.071922906 170:0.024035433 171:0.2781069 172:0.2781069 173:0.033086777 174:0.099008255 175:0 176:0.13883464 177:0 178:0.14672215 179:0.049032096 180:0.2781069 181:0.26399061 182:0.070477359 183:0.21089514 184:0 185:0.085528851 186:0 187:0.26399061 188:0.10964859 189:0.26399061 190:0.26399061 191:0.060683843 192:0.1815892 193:0 194:0.03236394 195:0 196:0.23026466 197:0.07695061 198:0.26399061 199:0.26399061 200:0.052858014 201:0.15817136 202:0 203:0.053059403 204:0 205:0.20886184 206:0.069798134 207:0.26399061 208:0.26399061 209:0.063383862 210:0.18966848 211:0 212:0.20879917 213:0 214:0.19437636 215:0.064957336 216:0.26399061 217:0.076461621 218:0.047045738 219:0.14077857 220:0 221:0.30062798 222:0 223:0.22182283 224:0.074129291 225:0.076461621 226:0.30062798 227:0.038892947 228:0.11638212 229:0 230:0.10308023 231:0 232:0.048508782 233:0.016210783 234:0.30062798 235:0.25771019 236:0.047862045 237:0.14322092 238:0 239:0.30062798 240:0 241:0.29700556 242:0.099254042 243:0.25771019 244:0.30062798 245:0.08560697 246:0.25616771 247:0 248:0.067371085 249:0 250:0.078346699 251:0.026182089 252:0.30062798 253:0.35226747 254:0.0072002453 255:0.021545796 256:0 257:0 258:0 259:0 260:0 261:0.35226747 262:0.35226747 263:0 264:0 265:0 266:0 267:0 268:0 269:0 270:0.35226747 271:0.35226747 272:0.018000616 273:0.053864498 274:0 275:0 276:0 277:0 278:0 279:0.35226747 280:0.35226747 281:0 282:0 283:0 284:0 285:0 286:0 287:0 288:0.35226747 289:0.30662274 290:0.01844118 291:0.055182829 292:0 293:0 294:0 295:0 296:0 297:0.30662274 298:0.30662274 299:0.1248652 300:0.30662274 301:0 302:0.12548435 303:0 304:0.0064801346 305:0.0021655527 306:0.30662274 307:0.30662274 308:0.024588237 309:0.073577099 310:0 311:0 312:0 313:0 314:0 315:0.30662274 316:0.30662274 317:0.12614363 318:0.30662274 319:0 320:0.007821261 321:0 322:0 323:0 324:0.30662274 
0 0.0054760315709375907 0 0 0.10163196209437722 1:0 2:0.028790332 3:0.086151645 4:0 5:0.021808889 6:0 7:0 8:0 9:0 10:0.14190775 11:0.11631922 12:0.34807152 13:0 14:0.035768498 15:0 16:0.18466458 17:0.061711818 18:0.14190775 19:0 20:0.088637933 21:0.26523846 22:0 23:0.36554205 24:0 25:0 26:0 27:0 28:0.14273748 29:0.31805316 30:0.36554205 31:0 32:0.36554205 33:0 34:0.36554205 35:0.13738696 36:0.14273748 37:0.13115333 38:0.051553562 39:0.15426792 40:0 41:0.044012222 42:0 43:0.35483393 44:0.12008601 45:0.13115333 46:0.054450117 47:0 48:0 49:0 50:0.13230079 51:0 52:0.15273386 53:0.051041055 54:0.054450117 55:0.13192017 56:0.1932558 57:0.35483393 58:0 59:0.35483393 60:0 61:0.35483393 62:0.29305935 63:0.13192017 64:0 65:0.031194961 66:0.093346864 67:0 68:0.35483393 69:0 70:0.25557405 71:0.085408576 72:0 73:0.37559941 74:0 75:0 76:0 77:0.37559941 78:0 79:0.37559941 80:0.14646123 81:0.37559941 82:0.1131869 83:0 84:0 85:0 86:0.32050675 87:0 88:0 89:0 90:0.1131869 91:0 92:0 93:0 94:0 95:0 96:0 97:0 98:0 99:0 100:0.37559941 101:0 102:0 103:0 104:0 105:0 106:0 107:0 108:0.37559941 109:0 110:0.051784556 111:0.15495913 112:0 113:0.39110994 114:0 115:0 116:0 117:0 118:0.0087917866 119:0.1225705 120:0.36677736 121:0 122:0.39110994 123:0 124:0.088891812 125:0.029706156 126:0.0087917866 127:0 128:0.09371572 129:0.28043321 130:0 131:0.39110994 132:0 133:0 134:0 135:0 136:0.0236215 137:0.10018527 138:0.29979241 139:0 140:0.39110994 141:0 142:0.097597063 143:0.032615308 144:0.0236215 145:0.049335971 146:0.09252245 147:0.2768617 148:0 149:0.30440605 150:0 151:0.18415348 152:0.061541021 153:0.049335971 154:0.17027508 155:0.061754286 156:0.18479209 157:0 158:0.29345199 159:0 160:0.064469315 161:0.021544568 162:0.17027508 163:0.21145828 164:0.054626491 165:0.16346307 166:0 167:0.30440605 168:0 169:0.23552664 170:0.078709073 171:0.21145828 172:0.30440605 173:0.11743613 174:0.30440605 175:0 176:0.12132334 177:0 178:0.094210654 179:0.031483628 180:0.30440605 181:0.29233316 182:0.040744185 183:0.12192214 184:0 185:0 186:0 187:0 188:0 189:0.29233316 190:0.30762342 191:0.070611514 192:0.21129657 193:0 194:0 195:0 196:0 197:0 198:0.30762342 199:0.30762342 200:0.098770894 201:0.29556015 202:0 203:0 204:0 205:0 206:0 207:0.30762342 208:0.30762342 209:0.097663946 210:0.2922478 211:0 212:0 213:0 214:0 215:0 216:0.30762342 217:0 218:0.071953997 219:0.21531381 220:0 221:0.41390124 222:0 223:0 224:0 225:0 226:0.017188411 227:0.05612462 228:0.16794631 229:0 230:0.41390124 231:0 232:0.040721476 233:0.013608438 234:0.017188411 235:0.072066352 236:0.0095501542 237:0.028577665 238:0 239:0.41390124 240:0 241:0.11865494 242:0.0396524 243:0.072066352 244:0.28699499 245:0.044855252 246:0.13422355 247:0 248:0.41390124 249:0 250:0.11050109 251:0.036927521 252:0.28699499 253:0.16440704 254:0.022617955 255:0.067681544 256:0 257:0.12329628 258:0 259:0.14042924 260:0.046929106 261:0.16440704 262:0.33374918 263:0.059436373 264:0.17785631 265:0 266:0.019690819 267:0 268:0.056171693 269:0.018771641 270:0.33374918 271:0.35537052 272:0.097229853 273:0.29094765 274:0 275:0 276:0 277:0.0097376164 278:0.0032541405 279:0.35537052 280:0.35537052 281:0.062571235 282:0.18723628 283:0 284:0 285:0 286:0 287:0 288:0.35537052 289:0.20228466 290:0.030626031 291:0.091644771 292:0 293:0 294:0 295:0 296:0 297:0.20228466 298:0.21675032 299:0.022274842 300:0.066654764 301:0 302:0 303:0 304:0 305:0 306:0.21675032 307:0.37566575 308:0.095795274 309:0.28665486 310:0 311:0 312:0 313:0 314:0 315:0.37566575 316:0.37566575 317:0.12288822 318:0.36772701 319:0 320:0 321:0 322:0 323:0 324:0.37566575 
0 0 0.039399683890385812 0 0 1:0 2:0.025442963 3:0.076135047 4:0 5:0.019273233 6:0 7:0 8:0 9:0 10:0.12933953 11:0.14586413 12:0.38728601 13:0 14:0.11252663 15:0 16:0.1184568 17:0.039586283 18:0.12933953 19:0 20:0.11052144 21:0.33072227 22:0 23:0.38728601 24:0 25:0 26:0 27:0 28:0.086815841 29:0.37677673 30:0.38728601 31:0 32:0.38728601 33:0 34:0.15794237 35:0.052781705 36:0.086815841 37:0.16868965 38:0.097607881 39:0.29207987 40:0 41:0.23109938 42:0 43:0.25957936 44:0.08674708 45:0.16868965 46:0.016788758 47:0.0049654422 48:0.014858439 49:0 50:0.10005818 51:0 52:0.073876962 53:0.024688445 54:0.016788758 55:0.10910226 56:0.23847985 57:0.39389396 58:0 59:0.39389396 60:0 61:0.34610575 62:0.11566277 63:0.10910226 64:0.0096890721 65:0.02979264 66:0.089150593 67:0 68:0.39389396 69:0 70:0.098502599 71:0.032917921 72:0.0096890721 73:0 74:0 75:0 76:0 77:0 78:0 79:0 80:0 81:0 82:0 83:0 84:0 85:0 86:0 87:0 88:0 89:0 90:0 91:0 92:0 93:0 94:0 95:0 96:0 97:0 98:0 99:0 100:0 101:0 102:0 103:0 104:0 105:0 106:0 107:0 108:0 109:0 110:0.074456364 111:0.22280185 112:0 113:0.37961215 114:0 115:0 116:0 117:0 118:0.0079418514 119:0.1252549 120:0.37481031 121:0 122:0.37961215 123:0 124:0.013611771 125:0.0045488263 126:0.0079418514 127:0 128:0.11276347 129:0.33743131 130:0 131:0.37961215 132:0 133:0 134:0 135:0 136:0.053799551 137:0.087224439 138:0.26100877 139:0 140:0.37961215 141:0 142:0 143:0 144:0.053799551 145:0.070880488 146:0.049245011 147:0.14735965 148:0 149:0.36190069 150:0 151:0.025353719 152:0.00847279 153:0.070880488 154:0.1888435 155:0.021137316 156:0.063250825 157:0 158:0.30029723 159:0 160:0.0072157346 161:0.0024113783 162:0.1888435 163:0.30962649 164:0.038864817 165:0.11629835 166:0 167:0.36190069 168:0 169:0 170:0 171:0.30962649 172:0.36190069 173:0.051682908 174:0.15465498 175:0 176:0.19550833 177:0 178:0 179:0 180:0.36190069 181:0.2611405 182:0.03790471 183:0.11342534 184:0 185:0 186:0 187:0 188:0 189:0.2611405 190:0.34495556 191:0.021461518 192:0.064221047 193:0 194:0.010549561 195:0 196:0.025277995 197:0.0084474841 198:0.34495556 199:0.34495556 200:0.094761781 201:0.28356338 202:0 203:0 204:0 205:0 206:0 207:0.34495556 208:0.34495556 209:0.053653803 210:0.16055264 211:0 212:0.063297339 213:0 214:0.06319499 215:0.02111871 216:0.34495556 217:0 218:0.10152541 219:0.30380273 220:0 221:0.34289956 222:0 223:0 224:0 225:0 226:0.034111768 227:0.054123756 228:0.1619589 229:0 230:0.34289956 231:0 232:0 233:0 234:0.034111768 235:0.086665526 236:0.039438587 237:0.11801509 238:0 239:0.34289956 240:0 241:0.2877129 242:0.096148603 243:0.086665526 244:0.34289956 245:0.073336624 246:0.21945041 247:0 248:0.27619353 249:0 250:0.14142624 251:0.047262166 252:0.34289956 253:0.20037791 254:0.02446547 255:0.073210016 256:0 257:0.20056595 258:0 259:0 260:0 261:0.20037791 262:0.37431481 263:0.027575189 264:0.082515486 265:0 266:0.046099544 267:0 268:0 269:0 270:0.37431481 271:0.3771145 272:0.030477658 273:0.091200434 274:0 275:0 276:0 277:0 278:0 279:0.3771145 280:0.3771145 281:0.013143218 282:0.039329369 283:0 284:0 285:0 286:0 287:0 288:0.3771145 289:0.24305439 290:0.024823209 291:0.074280515 292:0 293:0 294:0 295:0 296:0 297:0.24305439 298:0.27849153 299:0.018139554 300:0.054280415 301:0 302:0.055428371 303:0 304:0.016554167 305:0.0055321269 306:0.27849153 307:0.35354212 308:0.088486195 309:0.26478341 310:0 311:0 312:0 313:0 314:0 315:0.35354212 316:0.35354212 317:0.11351199 318:0.33966985 319:0 320:0.065167129 321:0 322:0 323:0 324:0.35354212 
0 0.041966126836347116 0 0 0.023690580744102206 1:0.035479821 2:0.0093231425 3:0.027898399 4:0 5:0.074242391 6:0 7:0 8:0 9:0.035479821 10:0.29643217 11:0.028551003 12:0.085435428 13:0 14:0.21172309 15:0 16:0.087578088 17:0.029267097 18:0.29643217 19:0.054098263 20:0.060673907 21:0.18155949 22:0 23:0.37980029 24:0 25:0 26:0 27:0.054098263 28:0.37980029 29:0.10809104 30:0.32344967 31:0 32:0.37980029 33:0 34:0.11343462 35:0.037907954 36:0.37980029 37:0.30588207 38:0.026391556 39:0.078973405 40:0 41:0.26558322 42:0 43:0.1354752 44:0.045273505 45:0.30588207 46:0.022959678 47:0.0072698849 48:0.021754183 49:0 50:0.081618994 51:0 52:0.014803413 53:0.0049470533 54:0.022959678 55:0.37974408 56:0.030460719 57:0.09115009 58:0 59:0.41709876 60:0 61:0.22205123 62:0.074205816 63:0.37974408 64:0.014547511 65:0 66:0 67:0 68:0.41709876 69:0 70:0.037008535 71:0.012367635 72:0.014547511 73:0 74:0 75:0 76:0 77:0 78:0 79:0 80:0 81:0 82:0 83:0 84:0 85:0 86:0 87:0 88:0 89:0 90:0 91:0 92:0 93:0 94:0 95:0 96:0 97:0 98:0 99:0 100:0.70461559 101:0 102:0 103:0 104:0 105:0 106:0 107:0 108:0.70461559 109:0.0063038478 110:0.055327374 111:0.16556062 112:0 113:0.42352077 114:0 115:0 116:0 117:0.0063038478 118:0.053743698 119:0.076395452 120:0.22860433 121:0 122:0.42352077 123:0 124:0.027647773 125:0.009239425 126:0.053743698 127:0 128:0.10266113 129:0.3072013 130:0 131:0.42352077 132:0 133:0 134:0 135:0 136:0.033600405 137:0.085703239 138:0.25645676 139:0 140:0.42352077 141:0 142:0.049568124 143:0.016564839 144:0.033600405 145:0.068257481 146:0.02162377 147:0.064706571 148:0 149:0.35001597 150:0 151:0.046459023 152:0.015525828 153:0.068257481 154:0.16289307 155:0.039146565 156:0.11714145 157:0 158:0.30030584 159:0 160:0.012405343 161:0.0041456586 162:0.16289307 163:0.21167456 164:0.06692294 165:0.20025896 166:0 167:0.35001597 168:0 169:0.11988445 170:0.040063381 171:0.21167456 172:0.35001597 173:0.13572705 174:0.35001597 175:0 176:0.1942862 177:0 178:0.047953773 179:0.016025349 180:0.35001597 181:0.29206213 182:0.040822528 183:0.12215658 184:0 185:0 186:0 187:0 188:0 189:0.29206213 190:0.29206213 191:0.070747286 192:0.21170285 193:0 194:0 195:0 196:0.12388141 197:0.041399099 198:0.29206213 199:0.29206213 200:0.098960809 201:0.29206213 202:0 203:0 204:0 205:0 206:0 207:0.29206213 208:0.29206213 209:0.097851746 210:0.29206213 211:0 212:0 213:0 214:0.19260101 215:0.064364046 216:0.29206213 217:0 218:0.12962157 219:0.37087378 220:0 221:0.37087378 222:0 223:0 224:0 225:0 226:0.032040697 227:0.074261606 228:0.22221905 229:0 230:0.37087378 231:0 232:0.026692649 233:0.0089202374 234:0.032040697 235:0.026033897 236:0.055924717 237:0.16734795 238:0 239:0.37087378 240:0 241:0.19063078 242:0.063705467 243:0.026033897 244:0.23553635 245:0.06519568 246:0.1950898 247:0 248:0.3685486 249:0 250:0.092840537 251:0.031025678 252:0.23553635 253:0.19050443 254:0.047436748 255:0.14194883 256:0 257:0.22891919 258:0 259:0.088133015 260:0.029452583 261:0.19050443 262:0.32069144 263:0.077116489 264:0.23076196 265:0 266:0.050180409 267:0 268:0.035253204 269:0.011781031 270:0.32069144 271:0.32655957 272:0.087641083 273:0.26225451 274:0 275:0 276:0 277:0 278:0 279:0.32655957 280:0.32655957 281:0.08320123 282:0.24896882 283:0 284:0 285:0 286:0 287:0 288:0.32655957 289:0.19739039 290:0.029885035 291:0.089427426 292:0 293:0 294:0 295:0 296:0 297:0.19739039 298:0.22193147 299:0.04625966 300:0.13842621 301:0 302:0 303:0 304:0.03997723 305:0.013359723 306:0.22193147 307:0.35712871 308:0.09824279 309:0.29397881 310:0 311:0 312:0 313:0 314:0 315:0.35712871 316:0.35712871 317:0.23291676 318:0.35712871 319:0 320:0 321:0 322:0 323:0 324:0.35712871 
0 0 0.04580780016364578 0 0 1:0.011491779 2:0.01963309 3:0.058749691 4:0 5:0.070037074 6:0 7:0 8:0 9:0.011491779 10:0.22803646 11:0.071344286 12:0.21348932 13:0 14:0.32857585 15:0 16:0.069974482 17:0.023384303 18:0.22803646 19:0.0086188335 20:0.07629706 21:0.2283099 22:0 23:0.41433987 24:0 25:0 26:0 27:0.0086188335 28:0.20091952 29:0.23502819 30:0.41433987 31:0 32:0.41433987 33:0 34:0.093299299 35:0.031179069 36:0.20091952 37:0.23256649 38:0.032408521 39:0.096978657 40:0 41:0.41682133 42:0 43:0.12497297 44:0.041763876 45:0.23256649 46:0.012576151 47:0 48:0 49:0 50:0.11082988 51:0 52:0.020828826 53:0.0069606458 54:0.012576151 55:0.20457338 56:0.1406181 57:0.42078221 58:0 59:0.42380381 60:0 61:0.1666306 62:0.055685163 63:0.20457338 64:0.0094321109 65:0.011426919 66:0.034193568 67:0 68:0.42380381 69:0 70:0.027771764 71:0.0092808586 72:0.0094321109 73:0 74:0 75:0 76:0 77:0 78:0 79:0 80:0 81:0 82:0 83:0 84:0 85:0 86:0 87:0 88:0 89:0 90:0 91:0 92:0 93:0 94:0 95:0 96:0 97:0 98:0 99:0 100:0 101:0 102:0 103:0 104:0 105:0 106:0 107:0 108:0 109:0 110:0.05266929 111:0.1576066 112:0 113:0.36156228 114:0 115:0 116:0 117:0 118:0.0073732394 119:0.12221888 120:0.36156228 121:0 122:0.36156228 123:0 124:0.054469761 125:0.018202884 126:0.0073732394 127:0 128:0.13154261 129:0.36156228 130:0 131:0.36156228 132:0 133:0 134:0 135:0 136:0.038724061 137:0.10422799 138:0.3118898 139:0 140:0.36156228 141:0 142:0.1839692 143:0.061479431 144:0.038724061 145:0.028631808 146:0.088619791 147:0.26518342 148:0 149:0.35168728 150:0 151:0.10400555 152:0.034756918 153:0.028631808 154:0.065918721 155:0.011647614 156:0.034853965 157:0 158:0.16584502 159:0 160:0.022375412 161:0.0074774888 162:0.065918721 163:0.32814747 164:0.02485094 165:0.074363261 166:0 167:0.35168728 168:0 169:0.35168728 170:0.12563191 171:0.32814747 172:0.35168728 173:0.0033149412 174:0.0099195307 175:0 176:0.033572316 177:0 178:0.092903107 179:0.031046666 180:0.35168728 181:0.090567321 182:0.012141629 183:0.036332384 184:0 185:0 186:0 187:0.006272235 188:0.0020960763 189:0.090567321 190:0.10716423 191:0.021716755 192:0.064984806 193:0 194:0 195:0 196:0.073433869 197:0.02454037 198:0.10716423 199:0.36491895 200:0.072849743 201:0.21799421 202:0 203:0 204:0 205:0.037633397 206:0.012576452 207:0.36491895 208:0.36491895 209:0.13030046 210:0.36491895 211:0 212:0.16525094 213:0 214:0.36491895 215:0.21701635 216:0.36491895 217:0.053853013 218:0.10988898 219:0.30040622 220:0 221:0.30040622 222:0 223:0.16774066 224:0.056055989 225:0.053853013 226:0.23079504 227:0.059429612 228:0.17783608 229:0 230:0.30040622 231:0 232:0.16692975 233:0.055785056 234:0.23079504 235:0.21459436 236:0.0058326349 237:0.017453467 238:0 239:0.30040622 240:0 241:0.30040622 242:0.11066386 243:0.21459436 244:0.30040622 245:0.0023330539 246:0.0069813868 247:0 248:0.079490341 249:0 250:0.17074159 251:0.057058845 252:0.30040622 253:0.32364562 254:0 255:0 256:0 257:0.055631481 258:0 259:0.14212005 260:0.047494132 261:0.32364562 262:0.32364562 263:0 264:0 265:0 266:0.0019865762 267:0 268:0.080731556 269:0.026979096 270:0.32364562 271:0.32364562 272:0 273:0 274:0 275:0 276:0 277:0.079268172 278:0.026490035 279:0.32364562 280:0.32364562 281:0 282:0 283:0 284:0 285:0 286:0.32364562 287:0.11943407 288:0.32364562 289:0.27120334 290:0.021617291 291:0.064687178 292:0 293:0 294:0 295:0.028274387 296:0.0094488151 297:0.27120334 298:0.24972896 299:0.041775033 300:0.12500679 301:0 302:0.20262714 303:0 304:0.27120334 305:0.097569585 306:0.24972896 307:0.27120334 308:0.029547816 309:0.088417992 310:0 311:0 312:0 313:0.27120334 314:0.12231646 315:0.27120334 316:0.27120334 317:0.10656371 318:0.27120334 319:0 320:0.1331338 321:0 322:0.27120334 323:0.10404663 324:0.27120334 
0.004035103081162927 0 0 0 0 1:0.010695532 2:0.027865797 3:0.083385102 4:0 5:0.065184318 6:0 7:0 8:0 9:0.010695532 10:0.12522079 11:0.090383589 12:0.27046221 13:0 14:0.3056021 15:0 16:0.10110807 17:0.033788625 18:0.12522079 19:0.008021649 20:0.10269864 21:0.30731353 22:0 23:0.43222877 24:0 25:0 26:0 27:0.008021649 28:0.093915589 29:0.25022399 30:0.43222877 31:0 32:0.43222877 33:0 34:0.13481073 35:0.045051493 36:0.093915589 37:0.15009126 38:0.057938069 39:0.17337279 40:0 41:0.49198422 42:0 43:0.15598568 44:0.052127812 45:0.15009126 46:0 47:0 48:0 49:0 50:0.053799585 51:0 52:0 53:0 54:0 55:0.11256843 56:0.15742613 57:0.47107849 58:0 59:0.52483696 60:0 61:0.20798089 62:0.069503732 63:0.11256843 64:0 65:0 66:0 67:0 68:0.22071539 69:0 70:0 71:0 72:0 73:0 74:0 75:0 76:0 77:0 78:0 79:0 80:0 81:0 82:0 83:0 84:0 85:0 86:0 87:0 88:0 89:0 90:0 91:0 92:0 93:0 94:0 95:0 96:0 97:0 98:0 99:0 100:0 101:0 102:0 103:0 104:0 105:0 106:0 107:0 108:0 109:0 110:0.063478589 111:0.18995214 112:0 113:0.38668007 114:0 115:0 116:0 117:0 118:0.011705316 119:0.13749819 120:0.38668007 121:0 122:0.38668007 123:0 124:0.027843008 125:0.0093046678 126:0.011705316 127:0 128:0.060066115 129:0.1797407 130:0 131:0.38668007 132:0 133:0 134:0 135:0 136:0.10986682 137:0.10829756 138:0.32406726 139:0 140:0.38668007 141:0 142:0.10202967 143:0.03409661 144:0.10986682 145:0.082288131 146:0.091809489 147:0.27472836 148:0 149:0.30170977 150:0 151:0.028260253 152:0.0094441036 153:0.082288131 154:0.20780271 155:0.039203607 156:0.11731215 157:0 158:0.057945184 159:0 160:0.052743357 161:0.017625947 162:0.20780271 163:0.30170977 164:0.1363865 165:0.30170977 166:0 167:0.30170977 168:0 169:0.10355863 170:0.034607563 171:0.30170977 172:0.30170977 173:0.11125987 174:0.30170977 175:0 176:0.0087148743 177:0 178:0.13185839 179:0.044064876 180:0.30170977 181:0.24400663 182:0.015805012 183:0.047294628 184:0 185:0 186:0 187:0.1199452 188:0.040083684 189:0.24400663 190:0.24340256 191:0 192:0 193:0 194:0.010737216 195:0 196:0.05385682 197:0.017998047 198:0.24340256 199:0.3391473 200:0.039512537 201:0.11823657 202:0 203:0 204:0 205:0.29986301 206:0.10020921 207:0.3391473 208:0.3391473 209:0.0071402253 210:0.021366196 211:0 212:0.3391473 213:0 214:0.20366234 215:0.068060555 216:0.3391473 217:0.055850074 218:0.047684006 219:0.14268872 220:0 221:0.28565657 222:0 223:0.19605766 224:0.065519035 225:0.055850074 226:0.24570908 227:0.073943652 228:0.22126728 229:0 230:0.28565657 231:0 232:0.2695626 233:0.090083137 234:0.24570908 235:0.13340455 236:0.014022842 237:0.041961692 238:0 239:0.19931455 240:0 241:0.28565657 242:0.10878088 243:0.13340455 244:0.28565657 245:0.079977334 246:0.23932181 247:0 248:0.082038566 249:0 250:0.28565657 251:0.14310774 252:0.28565657 253:0.2825776 254:0.071356326 255:0.21352498 256:0 257:0.082016334 258:0 259:0.15665273 260:0.052350637 261:0.2825776 262:0.2825776 263:0.065186463 264:0.19506234 265:0 266:0 267:0 268:0.084965512 269:0.028394012 270:0.2825776 271:0.2825776 272:0.07352259 273:0.22000679 274:0 275:0 276:0 277:0.27586389 278:0.092188872 279:0.2825776 280:0.2825776 281:0.081674621 282:0.24440068 283:0 284:0 285:0 286:0.12917198 287:0.043167006 288:0.2825776 289:0.29778275 290:0.035781417 291:0.10707132 292:0 293:0 294:0 295:0.0550927 296:0.018411061 297:0.29778275 298:0.29778275 299:0.070923299 300:0.21222872 301:0 302:0.29778275 303:0 304:0.05417411 305:0.018104082 306:0.29778275 307:0.29778275 308:0.071304828 309:0.21337041 310:0 311:0 312:0 313:0 314:0 315:0.29778275 316:0.29778275 317:0.084195293 318:0.25194344 319:0 320:0.091241792 321:0 322:0 323:0 324:0.29778275 
0 0.073451633809232975 0 0 0 1:0.010884493 2:0.028358106 3:0.084858268 4:0 5:0.066335939 6:0 7:0 8:0 9:0.010884493 10:0.12743309 11:0.098251149 12:0.29400486 13:0 14:0.13445875 15:0 16:0.21158831 17:0.070709273 18:0.12743309 19:0.0081633683 20:0.082910351 21:0.24809943 22:0 23:0.38679275 24:0 25:0 26:0 27:0.0081633683 28:0.095574811 29:0.35941151 30:0.38679275 31:0 32:0.38679275 33:0 34:0.33160457 35:0.11081672 36:0.095574811 37:0.13633975 38:0.067921132 39:0.20324576 40:0 41:0.1741332 42:0 43:0.38162264 44:0.13592835 45:0.13633975 46:0.006473809 47:0.0025485682 48:0.0076262578 49:0 50:0.075564541 51:0 52:0.044175621 53:0.014762755 54:0.006473809 55:0.1022548 56:0.38162264 57:0.38162264 58:0 59:0.38162264 60:0 61:0.38162264 62:0.22156544 63:0.1022548 64:0 65:0.02983804 66:0.089286447 67:0 68:0.20561182 69:0 70:0.07901337 71:0.026404949 72:0 73:0.40741664 74:0 75:0 76:0 77:0.40741664 78:0 79:0 80:0 81:0.40741664 82:0.40741664 83:0 84:0 85:0 86:0.40741664 87:0 88:0 89:0 90:0.40741664 91:0 92:0 93:0 94:0 95:0 96:0 97:0 98:0 99:0 100:0 101:0 102:0 103:0 104:0 105:0 106:0 107:0 108:0 109:0 110:0.04407702 111:0.13189526 112:0 113:0.35331252 114:0 115:0 116:0 117:0 118:0 119:0.14092007 120:0.35331252 121:0 122:0.35331252 123:0 124:0.14105801 125:0.047139231 126:0 127:0 128:0.10850698 129:0.32469425 130:0 131:0.35331252 132:0 133:0 134:0 135:0 136:0.016438574 137:0.081594251 138:0.24416108 139:0 140:0.35331252 141:0 142:0.33798513 143:0.11294899 144:0.016438574 145:0.014980066 146:0.13038169 147:0.30615455 148:0 149:0.30615455 150:0 151:0.19737245 152:0.065958582 153:0.014980066 154:0.048668943 155:0.0087082759 156:0.026058385 157:0 158:0.042538639 159:0 160:0.011404962 161:0.0038113475 162:0.048668943 163:0.20811968 164:0.080084041 165:0.23964195 166:0 167:0.30615455 168:0 169:0.30615455 170:0.20351483 171:0.20811968 172:0.30615455 173:0.081898198 174:0.24507064 175:0 176:0.020324823 177:0 178:0.30615455 179:0.11643873 180:0.30615455 181:0.049700297 182:0 183:0 184:0 185:0 186:0 187:0 188:0 189:0.049700297 190:0.081917629 191:0 192:0 193:0 194:0 195:0 196:0 197:0 198:0.081917629 199:0.35432509 200:0.11181647 201:0.33459756 202:0 203:0 204:0 205:0.35350907 206:0.11813682 207:0.35432509 208:0.35432509 209:0.10422183 210:0.31187147 211:0 212:0.17771985 213:0 214:0.25593847 215:0.085530363 216:0.35432509 217:0.044490993 218:0.10945687 219:0.29929852 220:0 221:0.29929852 222:0 223:0.066460662 224:0.022209985 225:0.044490993 226:0.18405381 227:0.069340736 228:0.20749387 229:0 230:0.29929852 231:0 232:0.2361196 233:0.078907177 234:0.18405381 235:0.21322413 236:0.034425806 237:0.1030148 238:0 239:0.29929852 240:0 241:0.23749363 242:0.079366207 243:0.21322413 244:0.29929852 245:0.040717062 246:0.12184052 247:0 248:0.12964401 249:0 250:0.23682635 251:0.079143196 252:0.29929852 253:0.24214764 254:0.047009721 255:0.14067101 256:0 257:0.083228841 258:0 259:0.29319811 260:0.097981878 261:0.24214764 262:0.31657708 263:0.05263808 264:0.15751323 265:0 266:0.0041659684 267:0 268:0.22880223 269:0.076461874 270:0.31657708 271:0.31657708 272:0.0051101185 273:0.015291364 274:0 275:0 276:0 277:0.23733996 278:0.079314835 279:0.31657708 280:0.31657708 281:0 282:0 283:0 284:0 285:0 286:0.067547567 287:0.022573212 288:0.31657708 289:0.30362594 290:0.049554892 291:0.14828715 292:0 293:0 294:0 295:0.15666835 296:0.052355945 297:0.30362594 298:0.30362594 299:0.060274202 300:0.18036322 301:0 302:0.16579156 303:0 304:0.16014843 305:0.053518925 306:0.30362594 307:0.30362594 308:0 309:0 310:0 311:0 312:0 313:0.022706274 314:0.0075880378 315:0.30362594 316:0.30362594 317:0.090090044 318:0.26958269 319:0 320:0.075755544 321:0 322:0.16000248 323:0.053470038 324:0.30362594 
0 0 0 0.014047859087508245 0 1:0 2:0.012472523 3:0.037322547 4:0 5:0 6:0 7:0 8:0 9:0 10:0.14387836 11:0.094415151 12:0.28252605 13:0 14:0.12141742 15:0 16:0.056181557 17:0.01877494 18:0.14387836 19:0 20:0.086109571 21:0.2576727 22:0 23:0.38280055 24:0 25:0 26:0 27:0 28:0.14092432 29:0.43348858 30:0.43348858 31:0 32:0.43348858 33:0 34:0.14045393 35:0.046937358 36:0.14092432 37:0.219531 38:0.062174249 39:0.18604892 40:0 41:0.30997911 42:0 43:0.084866755 44:0.028361054 45:0.219531 46:0.24298839 47:0.0020910401 48:0.0062571652 49:0 50:0.35701624 51:0 52:0.014144459 53:0.004726842 54:0.24298839 55:0.15651816 56:0.32579207 57:0.35701624 58:0 59:0.35701624 60:0 61:0.21216691 62:0.070902638 63:0.15651816 64:0.013899948 65:0.024481408 66:0.073257424 67:0 68:0.20932367 69:0 70:0.035361152 71:0.011817105 72:0.013899948 73:0.53573585 74:0 75:0 76:0 77:0.53573585 78:0 79:0 80:0 81:0.53573585 82:0.1068311 83:0 84:0 85:0 86:0.33284435 87:0 88:0 89:0 90:0.1068311 91:0 92:0 93:0 94:0 95:0 96:0 97:0 98:0 99:0 100:0 101:0 102:0 103:0 104:0 105:0 106:0 107:0 108:0 109:0 110:0.050963163 111:0.15250121 112:0 113:0.36959562 114:0 115:0 116:0 117:0 118:0.017122049 119:0.14434278 120:0.36959562 121:0 122:0.36959562 123:0 124:0.11061216 125:0.036964737 126:0.017122049 127:0 128:0.10291465 129:0.30795991 130:0 131:0.36959562 132:0 133:0 134:0 135:0 136:0.03059317 137:0.10172522 138:0.30440065 139:0 140:0.36959562 141:0 142:0.19464082 143:0.065045714 144:0.03059317 145:0.050891466 146:0.092064336 147:0.27549106 148:0 149:0.33612105 150:0 151:0.24085678 152:0.080490306 153:0.050891466 154:0.072001591 155:0.0082587386 156:0.024713203 157:0 158:0.081794128 159:0 160:0.081800945 161:0.027336512 162:0.072001591 163:0.23818882 164:0.0097845178 165:0.029279009 166:0 167:0.33612105 168:0 169:0.33612105 170:0.18857285 171:0.23818882 172:0.33612105 173:0 174:0 175:0 176:0.021168193 177:0 178:0.30306804 179:0.10128028 180:0.33612105 181:0.09581738 182:0 183:0 184:0 185:0 186:0 187:0.0044041723 188:0.0014718007 189:0.09581738 190:0.11106297 191:0 192:0 193:0 194:0 195:0 196:0 197:0 198:0.11106297 199:0.48334631 200:0 201:0 202:0 203:0 204:0 205:0.026425023 206:0.0088308007 207:0.48334631 208:0.48334631 209:0 210:0 211:0 212:0.095194317 213:0 214:0.083689697 215:0.027967701 216:0.48334631 217:0.056569561 218:0.057013463 219:0.17060605 220:0 221:0.34779283 222:0 223:0.045958277 224:0.015358449 225:0.056569561 226:0.2196964 227:0.048926946 228:0.1464081 229:0 230:0.34779283 231:0 232:0.097598538 233:0.03261577 234:0.2196964 235:0.22541933 236:0 237:0 238:0 239:0.34779283 240:0 241:0.11489571 242:0.038396128 243:0.22541933 244:0.34779283 245:0 246:0 247:0 248:0.29759106 249:0 250:0.11540558 251:0.038566519 252:0.34779283 253:0.28455406 254:0.0051030158 255:0.015270132 256:0 257:0.021302456 258:0 259:0.17970671 260:0.060054965 261:0.28455406 262:0.32095951 263:0.0081698 264:0.024447061 265:0 266:0 267:0 268:0.14771621 269:0.049364254 270:0.32095951 271:0.32095951 272:0.019607507 273:0.05867292 274:0 275:0 276:0 277:0.11734594 278:0.03921495 279:0.32095951 280:0.32095951 281:0.049018782 282:0.14668232 283:0 284:0 285:0 286:0.317653 287:0.10615407 288:0.32095951 289:0.2901862 290:0.0018688838 291:0.0055923918 292:0 293:0 294:0 295:0.047549013 296:0.015890051 297:0.2901862 298:0.2901862 299:0.019568376 300:0.058555823 301:0 302:0.14833447 303:0 304:0.049206499 305:0.016443983 306:0.2901862 307:0.2901862 308:0.036894049 309:0.11040063 310:0 311:0 312:0 313:0.2901862 314:0.15689412 315:0.2901862 316:0.2901862 317:0.18601316 318:0.2901862 319:0 320:0.090226471 321:0 322:0.19680643 323:0.065769255 324:0.2901862 
0.026938476497833038 0 0 0 0 1:0.010598104 2:0.018106291 3:0.054180928 4:0 5:0.064590529 6:0 7:0 8:0 9:0.010598104 10:0.12408011 11:0.065796085 12:0.19688699 13:0 14:0.38358343 15:0 16:0.10018704 17:0.033480834 18:0.12408011 19:0.0079485765 20:0.057917226 21:0.17331043 22:0 23:0.46821126 24:0 25:0 26:0 27:0.0079485765 28:0.093060084 29:0.16475219 30:0.46821126 31:0 32:0.46821126 33:0 34:0.1335827 35:0.044641104 36:0.093060084 37:0.14825042 38:0.045572802 39:0.13637121 40:0 41:0.56636733 42:0 43:0.15407254 44:0.05148847 45:0.14825042 46:0.05790877 47:0 48:0 49:0 50:0.10942996 51:0 52:0 53:0 54:0.05790877 55:0.1111878 56:0.096729681 57:0.28945208 58:0 59:0.58954686 60:0 61:0.20543005 62:0.068651281 63:0.1111878 64:0 65:0 66:0 67:0 68:0.22648463 69:0 70:0 71:0 72:0 73:0.4157424 74:0 75:0 76:0 77:0.4157424 78:0 79:0 80:0 81:0.4157424 82:0.39017946 83:0 84:0 85:0 86:0.4157424 87:0 88:0 89:0 90:0.39017946 91:0 92:0 93:0 94:0 95:0 96:0 97:0 98:0 99:0 100:0 101:0 102:0 103:0 104:0 105:0 106:0 107:0 108:0 109:0 110:0.07365863 111:0.2204147 112:0 113:0.40129286 114:0 115:0 116:0 117:0 118:0 119:0.097140372 120:0.29068097 121:0 122:0.40129286 123:0 124:0.093054064 125:0.03109711 126:0 127:0 128:0.08672028 129:0.25950015 130:0 131:0.40129286 132:0 133:0 134:0 135:0 136:0.029681137 137:0.091693826 138:0.27438292 139:0 140:0.40129286 141:0 142:0.1747933 143:0.058413003 144:0.029681137 145:0.038213175 146:0.029218893 147:0.087434068 148:0 149:0.35449871 150:0 151:0.1569847 152:0.052461661 153:0.038213175 154:0.1818774 155:0.011780162 156:0.035250735 157:0 158:0.099710889 159:0 160:0.03397356 161:0.011353395 162:0.1818774 163:0.23051544 164:0.077778123 165:0.2327418 166:0 167:0.35449871 168:0 169:0.35114321 170:0.11734619 171:0.23051544 172:0.35449871 173:0.070680939 174:0.21150434 175:0 176:0.087265864 177:0 178:0.11727735 179:0.039192133 180:0.35449871 181:0.2057967 182:0.0032756091 183:0.0098018702 184:0 185:0 186:0 187:0.048209246 188:0.016110726 189:0.2057967 190:0.11607686 191:0.012003347 192:0.03591859 193:0 194:0 195:0 196:0.07050027 197:0.023560014 198:0.11607686 199:0.34837279 200:0.019653646 201:0.058811199 202:0 203:0 204:0 205:0.28925535 206:0.09666431 207:0.34837279 208:0.34837279 209:0.072020046 210:0.21551146 211:0 212:0.29376057 213:0 214:0.34837279 215:0.18334116 216:0.34837279 217:0.1028734 218:0.016550073 219:0.049524128 220:0 221:0.31638029 222:0 223:0.070260502 224:0.023479825 225:0.1028734 226:0.31229916 227:0.018399853 228:0.055059377 229:0 230:0.31638029 231:0 232:0.20202282 233:0.067512527 234:0.31229916 235:0.19909056 236:0 237:0 238:0 239:0.31638029 240:0 241:0.09368065 242:0.031306431 243:0.19909056 244:0.31638029 245:0 246:0 247:0 248:0.17797123 249:0 250:0.30360392 251:0.1014591 252:0.31638029 253:0.31456903 254:0.02985389 255:0.089334235 256:0 257:0.088515803 258:0 259:0.18468326 260:0.061717987 261:0.31456903 262:0.31456903 263:0.059730362 264:0.17873569 265:0 266:0.019284461 267:0 268:0.048353165 269:0.016158815 270:0.31456903 271:0.31456903 272:0 273:0 274:0 275:0 276:0 277:0.22166938 278:0.074078016 279:0.31456903 280:0.31456903 281:0.075713105 282:0.22656162 283:0 284:0 285:0 286:0.019685848 287:0.0065786648 288:0.31456903 289:0.27828172 290:0.030769274 291:0.092073098 292:0 293:0 294:0 295:0.10297514 296:0.034412548 297:0.27828172 298:0.27828172 299:0.031395257 300:0.093946427 301:0 302:0.27828172 303:0 304:0.26632163 305:0.089000151 306:0.27828172 307:0.27828172 308:0.064056352 309:0.1916803 310:0 311:0 312:0 313:0.068068318 314:0.022747237 315:0.27828172 316:0.27828172 317:0.031338099 318:0.093775183 319:0 320:0.26236808 321:0 322:0.24323855 323:0.081286058 324:0.27828172 
